<?xml version="1.0"?>
<opencv_storage>
<opencv_ml_ann_mlp>
  <format>3</format>
  <layer_sizes>
    120 15 2</layer_sizes>
  <activation_function>SIGMOID_SYM</activation_function>
  <f_param1>0.66666666666666663</f_param1>
  <f_param2>1.7159</f_param2>
  <min_val>-0.94999999999999996</min_val>
  <max_val>0.94999999999999996</max_val>
  <min_val1>-0.97999999999999998</min_val1>
  <max_val1>0.97999999999999998</max_val1>
  <training_params>
    <train_method>BACKPROP</train_method>
    <dw_scale>0.001</dw_scale>
    <moment_scale>0.</moment_scale>
    <term_criteria>
      <iterations>3000</iterations></term_criteria></training_params>
  <input_scale>
    29.02468482048387 -28.056186316927899 11.519527047923196
    -10.717404561230673 9.826792971845288 -8.9974534368121937
    9.7572697762403156 -8.8999586407382285 9.6932959243200383
    -8.8211908927522611 9.5267033534923371 -8.6482408980482681
    9.3802004839955 -8.4927309430529583 9.2774635471687965
    -8.3811978404697687 9.1965478815183417 -8.3098115958399887
    9.1801133073200294 -8.319565625611105 9.1813740146600118
    -8.3296200347771041 9.1762886153431662 -8.3219493274111755
    9.091470233172366 -8.2445604945958486 8.9062219262276852
    -8.0744123970290325 8.8338118643389443 -7.9866378846907606
    8.8366143055169957 -7.9471978229877172 8.7895661750692646
    -7.8746216009827066 8.6526010701706575 -7.7361763629659679
    8.556216642751119 -7.6287069422070939 8.6058472589738919
    -7.6548870086097169 8.6756675634208342 -7.7037296611766344
    8.5674171977703573 -7.6092385753621476 8.350671135419006
    -7.4149648015521183 8.2730063741711355 -7.3363608165869723
    8.2107280364763522 -7.2715250036348626 8.1516776661426675
    -7.2064760990085235 8.1396737813497886 -7.170028325012674
    8.1348805004888085 -7.1557513761392597 8.1263682227516458
    -7.1623483808208288 8.0860711187573351 -7.1311949136507184
    8.0405723682924055 -7.0756234493923689 8.0285602301143175
    -7.0483086120213301 7.9541870787991575 -6.9749152606727014
    7.8133509993119823 -6.8526718172812835 7.678482281072081
    -6.7436221880349194 7.6447853112447879 -6.7079772730846026
    7.6459366426789117 -6.6912756429756399 7.5709157448691959
    -6.6149756182867687 7.4630601413708453 -6.5020849537581613
    7.4725027508646829 -6.4772105143937404 7.4922137136099423
    -6.4503913911566242 7.33884180873725 -6.2934457144639433
    7.1675976033037916 -6.1428601845949951 7.0588710417778371
    -6.0352083619776522 6.9465740405072403 -5.903500342760946
    6.8965273532397484 -5.8231345999687409 6.8810325682748115
    -5.7625923932685765 6.8049221261991999 -5.6572030297018507
    6.7133681572974453 -5.5584387089789073 6.6490089106699299
    -5.499233764525715 6.623785413895007 -5.4683144120165812
    6.6307253727113817 -5.4595148192475476 6.5690195134991463
    -5.4020964011044725 6.4530123360483946 -5.2960049863819343
    6.2602420958465927 -5.1048642081399729 6.0544000893939067
    -4.9001269730643386 5.8581820205740396 -4.7173214588831414
    5.7567759094538182 -4.6197548619281035 5.7487182842627096
    -4.6070855791062089 5.7780160529844915 -4.6330518369527933
    5.7685994483262375 -4.6175940216399081 5.7788246431715882
    -4.6165566694629971 5.8568810091135761 -4.6876908741743648
    5.9729108311731522 -4.7898937165530731 6.0943649042530597
    -4.8974735154816607 6.1389120130062684 -4.9392272126435381
    6.1067042202062032 -4.9120931343115659 6.1036749168218467
    -4.9035053469720626 6.1973580238763688 -5.0015733373197415
    6.3291064922113982 -5.1598028775655767 6.4191268227008091
    -5.2835737853336706 6.4862623119378169 -5.3745871559528231
    6.5286808699779906 -5.4436991565237971 6.5882009146154061
    -5.5170425944013957 6.6816505164914934 -5.6032000056056663
    6.8068498723904627 -5.7121583178760229 6.9143978633296435
    -5.8264115040967033 6.98178071918458 -5.9129977751039027
    7.0311486724780918 -5.97608367271215 7.138451205812018
    -6.0667276779559645 7.2672404856241952 -6.1678682304925054
    7.3159264296768987 -6.19640874280402 7.385820136499758
    -6.2696954877713731 7.5002573849977452 -6.3994333650495401
    7.6084530306971576 -6.5329194188819191 7.5573691036140893
    -6.511522157358419 7.5403052659837675 -6.498482901254504
    7.5772143144183319 -6.5356435310500638 7.6605132919384769
    -6.6370366294418419 7.6775637000340522 -6.6884627595976891
    7.7610023308276732 -6.761434649998173 7.9901914485839791
    -6.9142043569381215 8.1669156462543935 -7.0439868857423047
    8.1991750149699971 -7.090031256314707 8.1977489319048669
    -7.1147698694367154 8.1879945365407707 -7.1243757148203946
    8.2174198592389587 -7.1596868827782378 8.2227005156884339
    -7.1658974709056356 8.3694074431617711 -7.3189208746737657
    8.5499360865277332 -7.4968101433167211 8.5932063214260257
    -7.5476256528129486 8.6253146088888908 -7.5895340368593756
    8.6830624267860532 -7.6424057426514418 8.7460455589686568
    -7.7016738112233281 8.8148006059062087 -7.7798783204384803
    8.8788364769289654 -7.8469940654648376 9.0029340393511763
    -7.9774413749551343 8.9973305505336292 -7.988952547276881
    9.0231594943053199 -8.0124000918985345 9.146918554498674
    -8.1160489981274644 9.2176157844443356 -8.1858141581372035
    9.2626635110874194 -8.2437957592850122 9.3656920595639974
    -8.3490331161656446 9.4404466987930888 -8.4050930218547748
    9.3783689415704181 -8.3486436283834564 9.3301312625801547
    -8.3044882592835236 9.4851027605174014 -8.4482326836331261
    9.6513623635696906 -8.6477468737248753 11.255865665784681
    -10.286087535412312 26.847255831515703 -25.556661437710321</input_scale>
  <output_scale>
    0.52631578947368418 0.49999999999999994 0.52631578947368418
    0.49999999999999994</output_scale>
  <inv_output_scale>
    1.8999999999999999 -0.94999999999999996 1.8999999999999999
    -0.94999999999999996</inv_output_scale>
  <weights>
    <_>
      -0.006393901863150777 -0.28227277273609969 -0.11833692431369183
      -0.13228042560970724 0.0001987018644132071 -0.68162383202730081
      -0.19587352786341156 -0.090798844508605175 0.35173020057831089
      -0.22184668723365017 0.43704891155629849 0.16015689878630371
      -0.48483302203033846 -0.19508625343468114 0.33217489705485154
      0.024906647546432605 -0.037938357295132084 0.41663865022599328
      -0.10077431270167891 -0.045125278903636656 -0.76670601702888952
      -0.10500214629031496 -0.10304545912160157 0.84546681159639425
      -0.096691627758637655 -0.57396504358489542 0.072705680647369306
      0.90663813725172016 -0.040095930761407862 0.25178353463726355
      -0.025590636546928908 0.20039990621309384 -0.11653755411472297
      -0.20043155961744227 0.051838015891413652 -0.55671343917511662
      -0.17578072515026805 -0.33684200387944208 0.62414725873044874
      -0.23567838440274075 -0.47585964509845285 0.29992480418374096
      0.170934252407485 0.13918530768742327 0.13812758862392108
      -0.032824477111869289 0.25351146888109338 -0.35796789613406593
      -0.20750079455565479 0.092107215098165315 0.45662090334532723
      -0.23995246318475974 -0.45797986103381255 -0.2340428749614494
      -0.31938925430375575 -0.14764569506886585 0.44517491900618583
      -0.37804274593269632 0.28864188621522752 0.15384662886771899
      -0.0053598371335902293 -0.050614697103083119 -0.16255449963757373
      -0.057047799838126058 0.02086553765590974 0.56524682855346031
      -0.072624615421752747 -0.15129579381577116 -0.052386793263715453
      -0.1229202767180412 0.27088626329990423 0.2093170266092699
      -0.30756375800754043 0.049012338411912028 0.11943818718876745
      0.00058060525386718117 -0.23637688164260795 0.060484875174490721
      0.0059573607877802933 -0.0093955147147848899 0.4724111103167169
      -0.009821221996358603 0.085145249332861925 0.90897821605874396
      0.02525735198045289 0.57950282871609082 0.027365624916636376
      -0.10673262263842137 -0.16917262412185582 0.18595889834606422
      -0.007399508791786592 -0.029326064769504289 -0.11528534746379744
      -0.15378440372724839 0.075210851540198909 1.7476494744382258
      -0.15012799189504389 -0.13612243585889541 0.45843503886354225
      -0.17518650870340702 1.0486145285495811 0.32947345741554757
      -0.20234099756414264 0.011681197681337407 0.24078298223230379
      -0.0076084457060045258 -0.28303874979008325 0.13896139512907629
      -0.021625849957561505 -0.0048807322902925101 0.8063603775230147
      -0.0043540363843714075 0.13189785123927411 0.13778104608574326
      -0.0063758035463293613 0.8992228492955443 0.070861317352419892
      0.61405367952061918 -0.24681065809952368 0.23773415793775554
      -0.0098047791215947373 -0.076656271454777727 -0.19557262038957385
      -0.055970830714515814 0.036578646309024722 0.61820304244284463
      -0.069504408292108313 -0.071789128762535473 0.24895870472507539
      -0.12261882204520352 0.65430737880974488 0.22543043288093301
      0.61076646176461169 -0.039372182920960758 -0.278603265207443
      0.0072042222301869656 -0.0981588452363059 -0.11897832435616766
      -0.02885069717924248 0.016360204581397076 -0.51807891303115705
      -0.030008997070812941 0.0050054119919845817 0.44439316319301769
      -0.075120337168484874 0.29152239158943849 0.085574115476744428
      0.68590961515820026 -0.08394735492697683 -0.56220025934939277
      0.010772546986410949 -0.068974040974613876 0.026179569784181952
      0.032447013983923204 -0.013645852193706664 -1.0299523871337097
      0.034662609176226489 0.024049569471595183 -0.28078801132796016
      0.036695078471987747 0.058229758401476255 -0.075051720780692596
      0.50264541500546955 -0.11535152952203388 -0.67252773564537915
      0.034753872096997401 -0.20736009943460201 0.38548632461239962
      0.12459669012601987 -0.092009465834389931 -0.94510920489374239
      0.14949295347359154 0.15801197170081258 -0.17697334035602
      0.19545611994355269 -0.18261434205317262 -0.28407337216040257
      0.3912078967376218 -0.2274991349296627 -0.56749101483403541
      0.01124323776938721 -0.13819405085453021 0.36500018822504138
      0.071261805913928652 -0.051806654801722578 -0.7165709887663787
      0.078029563088982817 0.068867455074091893 -0.37137224775659511
      0.12581776273572357 0.25909622794291631 -0.18778039805034505
      0.019176197817113948 -0.1278844124865457 -0.22053209615337521
      -0.025694408498952916 -0.0015880026941250886 0.2147502530919477
      -0.019166108971602123 0.010823203753880569 -0.8230474961517088
      0.023591801064765407 -0.082784499660435593 0.064556345020477121
      -0.0058782970952764744 0.46211799052016433 -0.035346756173680591
      -0.28855075885002812 -0.0083334291750190408 0.043806649378847859
      -0.024220269065209712 0.080906407500999339 0.10364645701515895
      -0.042736642434911931 0.043923750120355376 -0.38537893213394392
      -0.020669819024164163 -0.15059467662180748 0.54331812499982379
      -0.040179917234506951 -0.19940738198095395 0.054763821633419585
      -0.32383789653309392 0.060635935162091384 0.0028622831241873234
      -0.0088282951029764745 0.13984566730888315 -0.017463065783568439
      -0.031371528931245722 -0.00094127382095015428 0.20024689090972092
      -0.011884003066847891 -0.13243240852420127 -0.58056166978229251
      -0.018754216740255875 -0.85978349401381959 0.058095926002247888
      -0.3387774324077511 0.099366130913726647 -0.11578249190108277
      0.013271232408741057 -0.045678507678857318 0.084639150838414834
      0.05344521947104057 -0.033555922274860643 0.21466853101870431
      0.059640348504916327 0.027730211950679519 -1.5340785986112837
      0.086647968297484584 -0.79628949279209649 -0.052431674978487025
      -0.10759784731755032 -0.092894802836402696 0.011445246046414349
      0.025338167170517654 -0.36067983560993094 0.42977126334669208
      0.13327097204393237 -0.065455958790414701 -0.67370138117029887
      0.13241844253567334 0.24675337370668318 -0.92508778179097417
      0.21411683612117743 -0.70250704367045891 -0.23642894980249052
      0.37492267199131196 -0.35554198287479433 0.28310479154516904
      -0.0092120228883484957 0.041415427069118403 -0.01409570407967563
      -0.04224106027352284 0.041647630252375487 0.19407461149289279
      -0.037666763459849456 -0.22347905559939288 0.16262891998677434
      -0.078205518346748396 -0.21229562232489826 0.21034331393365621
      -0.33987725621100545 0.096608529824640729 0.18853788677288208
      -0.021058763024567332 0.11024764409150206 -0.065471152681365122
      -0.065258546314655164 0.036618354923433009 -0.16300071649532841
      -0.043877811381642769 -0.21129870558205957 1.1369494268846836
      -0.10814206785390884 -0.5114092366733709 0.21496600235478622
      -0.26743824632788854 0.092963396017551644 0.14696039867787108
      0.013683347453540079 -0.21660129748427059 0.30027595926215839
      0.039143653650256224 -0.032723398284476041 -0.7705044080064023
      0.081699827742151371 0.21343871373133907 0.88574968145617727
      0.12002883475053057 -0.80080098138711397 -0.15056850185709905
      0.34920566183837332 -0.25055254169358721 0.29286633731069633
      0.0044517005917395179 -0.16657293026892167 0.20121799869510118
      0.011834692558383908 0.0049719159225468925 0.28232821423478582
      0.035640990565193147 0.1348761142414919 -0.2520881921407499
      0.039306505599052029 -0.032535788897126987 -0.022781554387951798
      0.13270619564225997 -0.10528626066110902 0.39054163010846982
      0.010812953679311111 -0.091977230894265974 0.12607987809520238
      -0.020465596565635454 0.029382340789594903 0.39341148007644788
      -0.028779909480931568 0.079089507427048567 -0.39642607047395173
      -0.038217144144948652 -0.018124927071821721 0.098676242042500056
      -0.10651384084141034 -0.041217034592688384 0.52763987621771014
      0.0084926884876726019 -0.08230116511497719 0.08308928944509443
      -0.0082786006692421935 -0.0059269500357075258
      -0.081242006270940012 -0.055790760616908013 0.15613092467811146
      -0.34839648584071425 -0.033043661337646399 -0.50677652630693437
      0.055655489018937319 0.069100098233927473 -0.049118062389722002
      0.37047330158231273 0.020370460439500315 -0.00086702839694899087
      -0.22216379652647011 -0.050605375580081255 0.040105676618880752
      -0.44762204840066822 -0.064747739975897806 0.035347429762386258
      -0.32619254082987142 -0.072652496532357641 -0.59342260044456052
      0.086895634037570946 0.36057742653186314 0.064470139558420292
      -0.070586906121441279 -0.020337613826891535 -0.020167427515953656
      -0.28361083248174224 -0.058751893347401649 0.051987117711174584
      -0.53421764960288853 -0.047555854376695871 -0.020697483961661645
      0.10622804484739162 -0.090536265098899033 0.045502922018683313
      0.071173417079860496 0.57875405494005927 0.03254798755517474
      -0.21482103119347948 -0.012420932873141931 -0.15847681329252689
      -0.12149142898259653 0.024093980489133155 0.012558055076307336
      -0.63806263805313057 0.050619247522570743 0.10433352946547997
      0.81643624679795368 0.063648388989976573 -0.051011222134793373
      -0.074999035359929314 0.70909004930143005 -0.13754435952361349
      -0.30192675351905512 -0.025778806214877888 0.015706892717352941
      -0.24011846704889095 -0.023564864985368798 0.051169889716327674
      0.47655598471368044 -0.027014530095128338 -0.12840526639491104
      0.4680951681126333 -0.040816776736492144 0.50763966485435397
      0.11790234158195986 -0.02115251542248894 0.015579745858682827
      -0.24214150403478468 -0.0088801208637043876 0.18756163508539542
      -0.34208908714298142 -0.084733556620504233 0.076614932184530304
      1.2706003668191805 -0.070406390373398006 -0.35516497817121656
      -0.12229551447441762 -0.14327760674895204 1.2973986219441653
      0.28994453777864287 -0.82835576079506634 0.23973181588793047
      -0.07140892072927614 -0.013649740256926141 0.082760930891460874
      -0.13169426134028822 -0.014916233076744573 0.0025515857159031665
      1.0344182064335512 -0.007214566527571179 -0.15694335968795012
      0.078433294916493645 -0.014387555503406658 0.88760749191761401
      0.12922456678884953 -0.86548261521474257 0.12114499178211223
      0.074345846832524348 0.0085398262000812592 -0.094402302385689557
      0.091783388889281045 0.091347802125907207 -0.049456127078127271
      0.42357202877154737 0.093941745021600159 0.12290629605084018
      -0.10730941771569091 0.13470406674061952 0.1179519308571277
      -0.17156497440589044 -0.50722716369627907 -0.13688016530512523
      0.086242039591872183 0.036582171943003297 -0.35005689088019976
      0.28019465412342076 0.15028968181419622 -0.056600280187051884
      -0.18591950480716046 0.17938708196722702 0.40129209246276942
      -0.91970564521295017 0.25217513601357527 -0.15357982353535993
      -0.34272865013706255 -0.22549703650576589 -0.36913052233632171
      0.25196063858176854 0.032399830989336423 -0.32037040838416136
      0.21661690458683919 0.14849649541319837 -0.068765644134213141
      0.45351127904407174 0.14273195863190985 0.40236857420181649
      -0.76682872736445484 0.23106652923308685 0.0021984982122564838
      -0.26680224151870602 -0.34355823890794224 -0.30323158175877934
      0.14222212282709246 0.024341030859311299 -0.1086092229176378
      -0.075961977522907356 0.037227107572013432 -0.0071683546138650413
      1.4504760623093564 0.031069172438395905 0.17185062663100548
      -0.095034176916590288 0.066269757871501717 0.41469379819002228
      -0.051730883917767159 -0.77277567007488246 -0.12403489202147985
      0.084935816932118324 0.0091608488046165202 -0.089418778862401987
      -0.034822868273231999 0.048445706294395111 0.0025441222412212004
      0.73650967232072906 0.033766149110937727 0.099616981036995289
      0.73695744082055348 0.05109364273432921 0.85641745305822692
      -0.053933815841885453 -0.70566201315365906 -0.081467757646666333
      0.15224628062763385 -0.0065629119713481628 0.012102186321278142
      -0.12130745271997896 -0.0059969022182090543 0.014636833186849748
      -0.066679839911860272 -0.015805021368670385 -0.029859487817676004
      1.1130351630034518 -0.010553820832460431 0.70016694605299623
      0.052681567938937003 -0.46437331752367855 0.027941718125494078
      0.11509309084919807 -0.012789482210803584 0.23872939730581724
      -0.32549871016745952 -0.087280490369127536 0.051661528631241085
      0.23972578958378876 -0.10933249750539815 -0.27300216358284413
      0.80543866589480073 -0.14980255209002039 0.34996041673468958
      0.26976484293087599 -0.35930149312550397 0.24234478764726144
      0.12875753891330668 -0.0053653484579779922 0.30371539305708029
      -0.35297950462473299 -0.089484072379764329 0.067054740272349464
      0.12393331894571846 -0.1041900600714897 -0.31199592514653912
      1.0544961047277033 -0.15823536738529681 0.18382978545383413
      0.28340511898902748 -0.74085453719980032 0.26651277234216164
      0.053923191306971374 -0.0098025848584086545 0.15292181645347033
      -0.24105366137154141 0.0077906248819614825 0.054927205815317265
      -0.42747667745766771 -0.0050852849679824544 -0.16185537668887981
      1.6180832072621267 0.005870524749394368 -0.15079943318402378
      0.056697714085142806 -1.0138215007813189 0.075547822824114041
      -0.032866434811671327 0.0080496525457932396 0.10127602210786486
      -0.18246776049338803 0.048241189847965625 0.021151401972977268
      -0.36583858558294291 0.053715162784364771 -0.041171669850010022
      0.89504569311577697 0.037930922949468579 -0.36793089502701271
      -0.014008539289751954 -1.0427652284277951 0.045296919523722085
      -0.072302511204539385 -0.0026834766123314054 0.10278076647580162
      -0.19325603396477603 0.02427720666459536 0.028052861820790639
      0.33587787572266703 0.022049875352090145 -0.027091472027110004
      -0.20612817960487878 0.012358971504003533 -0.19431651064601363
      0.010434770273989952 -0.85966809038891712 0.074981971244326998
      -0.0067202991424227185 -0.018447012528133206 -0.016221783352198749
      -0.094997688726496138 0.0022093868475538936 0.02301805459207891
      -0.46305481427156403 0.0056738981123811948 0.032349486809096405
      -0.21450353106396511 0.04061184380393118 -0.26971811827125963
      0.0098135630555996889 -0.44348109064359897 -0.016632308098466327
      0.30982834985348279 0.0084849629451723332 -0.24852616465317301
      0.12623614270311986 0.062214613338652212 -0.019773646317921729
      -0.99487714718364806 0.09479525701343873 0.23445125896896926
      0.96943918975178445 0.12846004541496017 -0.58838980605933233
      -0.14426210482811008 0.13501611628817886 -0.22336783344170993
      0.48603345139657156 0.021453871705065197 -0.06524237829761427
      -0.18920442937300117 -0.0094845499140053385 0.013977150540414113
      0.21403914349765116 -0.0054220645094779814 -0.00077679181111643106
      0.78075382576596253 -0.032441983244506943 0.18741678643427701
      0.12318381561459232 -0.34082555565471412 0.016829243836144609
      0.27054546535648466 -0.011495719857155849 0.11724454096141088
      -0.40897354322642382 -0.060241544190921925 0.058709109415591543
      0.94744263309210375 -0.091602588384874492 -0.15607690404395563
      0.68164132995973392 -0.1428589517337247 1.0078621777485013
      0.25451165789996366 -0.75682832737098271 0.15880131760615368
      0.21362838665930869 0.018853437507070064 -0.076275286756886371
      -0.24274563446933783 -0.035539795793412404 0.020812927662845104
      0.19588587906244631 -0.022333038701391611 0.072553296482524648
      0.93717867534686805 -0.066232980307985703 1.2944716697687408
      0.11931486188170376 -0.40435134746454304 -0.079523884804400161
      0.2696236358704141 0.0027278727861722893 -0.11312978626069883
      -0.40537863772684885 -0.084864941885537046 0.021864985063778614
      0.1986937948734683 -0.10535050077539247 0.031633360882991221
      0.12619651701397808 -0.15562555393901498 1.4409664218788143
      0.16387008000362843 -0.38783625153235357 -0.054003686522553024
      0.11905082034258609 0.01490894492207921 -0.53841895575691545
      -0.21639183584089539 0.036116576474627411 -0.0297644189491597
      -0.53021886988628175 0.019412786448129226 0.40909900144613898
      0.014620947392176091 0.030003542531364336 0.98034503588950273
      -0.18423008504797886 -0.1220348555934138 -0.45666344233173034
      0.070031800838710273 0.060236073738073256 -0.81630904280943195
      -0.13120382549593337 0.10083017787950006 -0.054191552476365951
      -1.1559224747469108 0.036223639354060679 0.64260567877063846
      0.032094125665881421 0.09980396475626141 0.13513095281951071
      -0.35913450021254473 -0.045811196339970592 -0.70033160766870617
      0.0011733746066865387 0.074733635258547731 -0.75377840147837616
      -0.13371747793542157 0.077423922921535202 -0.053353390808869777
      -1.3433974574829299 -0.011412414560427284 0.54929137265539807
      -0.11680176093820881 4.6100561338977551e-06 -0.2728649642072572
      -0.31490524517254331 -0.26919717812562166 -0.56712644940218127
      -0.13069070127136909 0.063804321551269333 -0.5870166016025179
      -0.14084118392712741 0.033583106657903178 -0.053816631606786097
      -1.214010002208743 -0.033598182710719043 0.38187224642292206
      -0.78121248342169902 -0.046061585783765985 -0.07115061531699815
      -0.25308226972207998 -0.35664239098620132 -0.44218547715722695
      -0.15835398990644334 0.070036617688179828 -0.48784496588611681
      0.084793847306990383 0.061209996914223026 -0.083045901020945168
      -1.2103610785780565 0.0092496979536247949 0.39983979731691932
      -1.0741235505364584 0.0216788183944195 -0.3113884629081401
      -0.34586522987818102 -0.46228085971448502 -0.39592036434699268
      0.043359790074248117 0.029960424182085565 -0.16786970377427221
      0.071291401427702392 -0.013235911665257772 -0.01263826727989128
      -0.28359237452239039 -0.048405822100964273 0.22884713360541117
      -1.4585497036708603 -0.037579429653917786 -0.64076744984875222
      -0.18585895403756134 -0.77429878928125939 -0.14107144546503145
      0.27250222614398317 0.023937851811385281 0.23604318620436057
      0.056557925740308143 -0.11079446329171633 -0.0016774732443812809
      -0.17448766711691349 -0.13745222395805881 -0.10444515919492388
      -1.3802225029515578 -0.18777842138015696 -0.72155437831679126
      0.063541375180655238 -0.80112677647190267 0.20114650437310566
      0.30969382708815119 4.935521219354586e-05 0.38145917318684686
      0.17320335752505733 -0.12811365099634142 0.0066948656262981422
      -1.0895280444993709 -0.13408301146148763 -0.21177637766990384
      -0.85155648143635365 -0.20102061008015121 -0.63485846404799506
      0.091604605303512013 -0.32005397883284392 0.33829951829308791
      0.048018731928404425 0.022528332024281512 0.018506600028950687
      0.48269922260294923 0.059735538018700421 -0.064756961164644564
      -1.972790049132539 0.060998797896592703 0.12767048512509901
      0.048186242090265369 0.07998911488673173 -0.78251286936335218
      -0.26166041227167253 0.74469354425684586 -0.0034077504358280613
      0.078013491377446786 -0.010147756311481267 0.31219440492904249
      0.041488221677299597 -0.042500582680107764 -0.0059880621347791051
      -0.79377016034216996 -0.036135490855293377 -0.19609379975229169
      -0.14192819018882302 -0.092322104987117029 -0.18569871891247217
      0.036914240579687015 0.63881432047713327 0.29856147915601527
      0.14746348382955501 -0.032732991310847545 0.57963764240712612
      -0.26448478207017911 -0.13314201351611271 0.060143578393304829
      -0.0054697618992880417 -0.13235540898144743 -0.41188137083786669
      -0.36694612213984101 -0.246647118933426 0.4652312477542549
      0.27133206933104703 0.49365875606106252 0.54194989687063322
      0.051710041057029602 -0.017051415746577755 0.5833736592750921
      -0.11942004355547661 -0.13280112534656974 0.0532403063893747
      -0.020481237699702844 -0.10542979024287062 -0.33195844131207825
      -0.33987995414303612 -0.21429306723449437 0.34832492134710247
      0.24566050916960819 0.5962514312474424 0.520894498261813
      -0.081254128849024179 -0.015457850068068386 0.42357614198797428
      0.19100957960682516 -0.045193122018138222 0.0023963427822421735
      -1.002778842382509 -0.019823318149480344 -0.15573348535276926
      -0.51742314473774953 -0.073082585294812194 -0.043360638348254286
      0.044214138874425185 0.67388969591117909 0.30830266717389282
      -0.11294746875415822 0.0010035225233688892 0.40220671137979325
      0.14269943223769316 -0.037208679741910902 0.0050305911837404838
      -0.99465982702302469 -0.018689646537536277 -0.261927516605099
      -0.26560112247114609 -0.04169744365102572 -0.099026747054959258
      0.066221252619658458 0.36611450081622016 0.32453381344755755
      -0.082064323114167059 -0.029440535333906816 0.3687805705118436
      -0.0059953714488235324 -0.021026005899795291 0.016702224418951372
      -0.065817984786594425 0.025248361298867317 -0.320499128306517
      0.26367821733580055 0.011029892372025471 0.15126744707144216
      0.082898813239338939 0.52299734220586513 0.32101690623041335
      0.068149484982607464 -0.030750652683971993 0.37238500232732513
      -0.12707443390280168 0.016325876633894926 0.010905743404807816
      0.29779305564195152 0.065026388546198008 -0.31018271850193679
      0.013691733480928113 0.10279275933684236 0.20941208100536185
      -0.032629153631429382 0.72902679218812272 0.28067883128150545
      0.031990295341335913 -0.00724982863473811 0.20191222769867442
      0.11813605612248482 0.1313462569869972 -0.046387046547473811
      -0.36992306266852742 0.19208610079949812 -0.11283369567886832
      -0.009715374585462672 0.26191450454662851 -0.28115665269036316
      -0.27650233229337901 0.8903798673541462 0.11087220495181808
      0.095607382290583687 -0.024539712125592378 0.42104212522945156
      0.028084343863482131 0.033441775525161518 -0.0049460095757810976
      -0.44548545773741188 0.096731029492859916 -0.33914720424566958
      -0.50139836944044525 0.11940462157888496 -0.20946414698995053
      -0.04485099045949667 0.27041351510981854 0.31031529935314156
      -0.03022490242072717 -0.032399660587613253 0.52632038726263841
      -0.094980653558779424 -0.073309574028520688 0.024163953143687855
      -0.35424143502839456 -0.018294880097501832 -0.52309981752264589
      -0.68082944726659411 -0.062069542613600051 -0.32170423692968764
      0.17075718766255429 -0.018419341506368047 0.50012924290627925
      0.014166492709296142 -0.01363177539687597 0.4731807565924887
      0.058670812423596445 -0.07939021559670012 0.037395919423733201
      -0.54058306395878564 -0.021389207938237335 -0.3845971149599548
      -0.69434935714951895 -0.037455289432606426 -0.35950534518031541
      0.14934592702205537 0.54810841281024847 0.41770557231710242
      -0.0056070632950543688 -0.02323577026239218 0.31933545336410407
      0.33722993738885826 -0.035574312929781138 -0.014275761907347086
      -0.8237023785217662 0.024965591353706778 -0.19736736237536071
      -1.3269237961970815 0.069716247016987282 -0.5185860454231136
      -0.064469816889732121 1.281444399197111 0.22119292806224888
      -0.042894949675196588 0.0046911616913884232 0.32951263309951823
      0.27508208631461667 0.014366024602744937 -0.032063959946484505
      -0.52293422115279942 0.0633175426135172 -0.21955102713773814
      -1.4048495584919103 0.092319165984103335 -0.26143571247067343
      -0.089651513696940049 1.2145245523349544 0.23773823186618454
      -0.028434715071371547 -0.02054739953478028 0.3334114521903358
      0.13592367988775031 0.015709797074985408 -0.010224966156862848
      -0.44656207790544289 0.067509679942906062 -0.22268384445621531
      -0.073591604961465787 0.086909777088388068 -0.2898873439741968
      -0.067766221921837649 0.66745067956154813 0.29059883685969379
      0.1065603257560776 -0.025879772863263043 0.42718339382821596
      0.054261005864071586 -0.0016589210109940885 -0.0028109248369955968
      -0.6572609752318197 0.041367656638111414 -0.26783363041707581
      0.67999475465884329 0.039534541031698366 -0.45945355932689308
      -0.027813104623640058 0.24296164276715931 0.31748047565333026
      0.071301542425235148 -0.017313958757958065 0.49132387028649988
      -0.019447982560992116 -0.0019467181510818942 0.018765409591969866
      -0.28942627852839659 -0.013333840053027721 -0.34218414283455328
      0.33494441791663948 -0.028328231520415463 -0.70178190550805508
      0.043034148445545935 0.20753975820453854 0.40372699276114499
      0.016338343269722309 -0.012292043531078465 0.65690891138756358
      -0.26582753354813282 -0.12035843007552464 0.078905741052309977
      0.54863675446272642 -0.12256537315908547 -0.51379084924524687
      0.01343799196501741 -0.1998021894584936 -0.24652604782553506
      0.29036235809688965 -0.055705667683668449 0.55350168119221888
      -0.17220283299525957 -0.0012494012954527953 0.23399259058736377
      0.11870067856862811 0.019269843583053149 0.0044023622439901813
      0.37547508705755955 0.035449672217804679 -0.083134209317370644
      1.5553245618222298 0.047069991682481993 -0.046942682394035214
      -0.050958128511716001 0.54091828175234158 0.11619925588823632
      -0.11051362344635247 -0.0044467695282006557 0.19141629223232273
      -0.055058795057277572 -0.028183159431429697 0.0062374236033927886
      1.17547926683195 -0.0037514321723957121 -0.1290154621194505
      1.3712786622728532 -0.023595090051248317 0.58500220813330217
      0.06358085928424248 0.29547640410874881 0.13712084452676027
      -0.091310805460983538 0.0058814458570266692 0.11513992126988717
      -0.1434630139746482 -0.027597745980557215 0.0080335604877981685
      1.006046590997496 -0.041710017854357566 -0.16197074265964609
      0.34091240719925575 -0.045384217651710065 0.52516746362726419
      0.12129158411204782 0.087751522100136869 0.090390020864544979
      0.0013263617004786118 0.010145806598639107 -0.13837747179058693
      -0.034041572192306191 -0.023326799768011081 0.010266176968350698
      0.33856335656957959 -0.0092716802966685552 0.062825037293642749
      0.0026538290486349154 -0.035099604019282617 -0.07913274978478653
      0.10349140934448157 0.20725785064439478 -0.10225616201266789
      0.090047424866388739 -0.010092079507486394 -0.15947424164458582
      -0.14268252247086768 -0.054349269649795057 0.03749393321736303
      -0.17968642345142399 -0.045971208680454491 0.075108327638656394
      -0.17598308361758641 -0.078232025905411146 0.23147269531868453
      0.14396520852989375 -0.042509511341026832 -0.071645089147807289
      0.085222084855763464 0.019675959977841866 -0.29999982820309889
      0.012141052015216701 0.018031798294412576 -0.00099878110188287629
      -1.0287413163624302 0.040968769317063752 0.23824666151043408
      0.59391089680637932 0.064561819097443837 0.19289404533613894
      -0.063679051343802417 0.22835402786055831 -0.23580223236003145
      0.094465465879029639 0.026774436872133114 -0.14334775320884854
      -0.081476540346921922 0.02963326894562926 -0.0076978129719433705
      -0.36236335031624978 0.0091285049782860242 0.10774614952453582
      0.63778799301007083 0.01840326356916723 -0.14728233529904838
      -0.018448237335822692 0.081316687307982694 -0.10944324471009512
      -0.099164649901590907 -0.0039681204862235106 0.033345785910154378
      -0.21829645494195857 -0.02229916846537126 0.033115240273526192
      1.0642235098620887 -0.011567563762719767 -0.077476260109205872
      0.61915756880340933 -0.047493808127607805 -0.18100549175941602
      0.081629990464798199 -0.13296830752620342 0.064616901280431294
      -0.23796642029932683 -0.005335245428240808 -0.071891342272109304
      0.060339953973167659 0.036916664223368555 0.012724210438245948
      1.0207731319549826 0.038735057637685893 0.059381978930393264
      0.96828940906167293 0.074110775264467368 -0.2847692825104074
      -0.097285014784333865 0.046346333116435871 -0.10364481204076655
      -0.075300986168326256 0.013191921001493545 -0.025895553077238682
      0.0049716266332943838 0.041431334522316225 0.0067305385119715462
      0.39675750175697932 0.022591351940771727 0.024296025840699981
      0.83879716544426031 0.02275416297033549 -0.40532890430115959
      -0.032333763796916042 0.083504424092344431 -0.059216879290968617
      -0.11645008152177636 -0.0041310422702962382 0.25770680898602177
      -0.25312596676214766 -0.024603006010482827 0.037230809584857243
      0.4270837038261861 -0.045252351997260659 -0.28581167643868438
      0.095544293244258477 -0.088353962637665429 0.29604024344838914
      0.18254234208043268 -0.09350581983549032 0.25133369622879709
      -0.18744462868637388 -0.02371663659641177 0.41644477161312488
      -0.32589190214697727 -0.10190457909155952 0.06704240220406682
      0.9390430386464772 -0.084691358706740466 -0.46688730599854561
      -0.16254277270195633 -0.16229362362860328 0.78002191916576602
      0.28255565374038655 0.024033989534210921 0.39136005299559379
      -0.20793615084096317 -0.014836843426297356 0.34196546777525322
      -0.069915302686315267 -0.029474180471142444 0.04653297117082112
      0.68446910808993933 -0.01178197170961969 -0.33223393643645766
      0.9170730055465619 -0.025604159488892626 0.24498605036810209
      0.11720002799362486 0.562592608457535 0.26801577590734948
      -0.080323702481544107 0.015465955847757007 0.22116242578916812
      0.03334947241749462 0.042915685496757054 -0.0087314866493646021
      0.22520625296720878 0.054018118365518814 -0.20413884187694195
      0.74336819814115862 0.099393187877268974 0.14437840900125901
      -0.072590508305682949 0.55382690789879974 0.16511395957144073
      -0.047967343373718004 0.0094743480642819292 0.11404904690813439
      -0.059275077272337162 0.061269006056992467 -0.0038003428093833693
      0.00019055246630560147 0.070863097568584901 -0.064603541373314033
      -0.081596361911262072 0.12294753540394761 -0.00038987840915069452
      -0.15379832140402594 0.151464180870336 0.027338058140257662
      -0.14189911008872455 0.011617675857133924 -0.21536831613018767
      0.014835175263064842 0.085915134562082676 -0.03409049003100012
      -0.25723846958574365 0.11771141413671765 0.21530940084766889
      0.04393101109749778 0.15578314486345241 -0.023899551231097497
      -0.28905626486625097 0.059676146821618085 -0.21408208058244194
      -0.014794730824640721 0.015076458933176601 -0.38779431191490321
      0.0657296190080634 0.080709724624640822 -0.004950467272294529
      0.053965145647858551 0.052995167906175637 0.26490547963638306
      0.26793656451653591 0.078094307878524435 0.41331116142712454
      -0.17565150860760245 0.0036298620262740704 -0.29050937121918807
      0.032939675219902549 0.013764614097349945 -0.26603965281357267
      -0.0097910278567519618 0.011877863411070581 0.0038869545301756475
      -0.054571975660968518 0.0042252716358935584 0.12056280628811711
      -0.069674684264927039 -0.010111152130739265 0.036684293895036565
      0.0224796571094899 -0.1152578761164882 -0.16524128874522234
      0.18922662178499339 0.031802441829392306 -0.14195107418531036
      -0.011502061001997185 0.037451924910583821 0.00047659016770159256
      -0.3459635684784429 0.039488335894979992 0.10090846199694378
      -0.39765166108187761 0.043491464262106219 -0.36770118650462569
      -0.030058964959751629 0.14166872545369175 -0.11737206214764907
      0.3499336271962164 0.0025393774320683201 -0.10603674924345451
      -0.051795917051631571 0.083835137836767923 -0.0068191031727293846
      0.52366331796222865 0.052119909972066246 0.1081650291592923
      -0.54347854002189677 0.089168518687517406 -0.012948013897636043
      -0.11465495841095016 0.28735623198754739 -0.10132002379302035
      0.26330927213445138 -0.0011902444824273229 0.059343320873561006
      -0.24888772818488025 0.052081346145621446 0.023661191218732287
      2.1688120488220504 -0.00050094444433264307 -0.06246123161380647
      -0.19273912816349334 0.017805934447870857 0.30756243477319717
      -0.011124842094009452 -0.091915259508505737 0.06956694218941932
      0.21236491474979266 -0.0054803663640942161 0.27501893432340885
      -0.47082235071274353 -0.023052283338942853 0.058199773483970416
      2.9875998116575291 -0.078737397580807278 -0.25957067734801365
      -0.22384384009642466 -0.10706581355603732 0.45238377208483022
      0.17283000537554544 -0.56955753062093106 0.29028853330906873
      0.15323434346149428 0.0028885599739285179 0.11897735773892147
      -0.24527901871931207 0.020056169183842211 0.017832426099687694
      2.2226920341707825 0.022522952515189047 -0.17862884304391791
      0.12680366746554622 -0.00047262061960455786 0.44648122879532359
      0.016862804471800861 -0.42340745171071509 0.16171760128275697
      0.20848696594956639 0.013462164281063279 -0.21251121635790066
      0.13707629665128893 0.10252498977971526 -0.054904328759499868
      0.56194043753952272 0.11850677370589521 0.16565241688870519
      0.96472122893317025 0.20094476198862923 0.046632497239537579
      -0.26960147429255765 -0.24684786072942952 -0.21195981283566392
      0.47413753842782586 0.019362496129301729 -0.13468562705407064
      -0.16821909036694813 0.0068435586390331845 -0.020952688494575961
      0.40730122201575014 0.01327410852050594 0.077279416021904232
      0.28925030958830905 0.037669169347596544 0.47739046501848359
      -0.023608556365635788 -0.76894137198150248 -0.13117173410149191
      0.44395484922290046 0.040648791963117367 -0.62424884500906386
      0.39242714625343567 0.13736132510544655 -0.10381812177514338
      -1.2316616708125574 0.15157173448690436 0.62232167855443521
      0.54165480162566026 0.21965802383479596 0.46335986974046733
      -0.37129398001843228 0.059132045485074988 -0.58939304198218423
      0.46845336001031479 0.031602703808199219 -0.51628277427157154
      0.46807335275457734 0.074330641380165846 -0.061637966880106206
      -0.63678254773811294 0.079427752131988313 0.52065751132952498
      0.39734339993329387 0.18240523135741263 0.65503898294127116
      -0.26351558636433059 0.25222272589172545 -0.47806734925228866
      0.41409723011146171 0.016781398253670501 -0.14709756274746255
      0.0091629101934266894 -0.031063187052682857 0.028000072065058498
      0.97542586018500399 -0.048834855977687969 0.12884466010796797
      -0.32864584023988674 -0.083190668951231533 0.94000566250811568
      0.12160257850046079 -0.29176602727942191 -0.07627941893028678
      0.2814866244094254 0.032034680944238801 -0.35386707521231697
      0.16023498444604592 0.066914136068915636 -0.024370935280494443
      0.66311638930305117 0.07730560771679762 0.34693268729094384
      0.14442378759516486 0.14530219546066564 0.44356144408181575
      -0.16488621696244091 -0.155467090891939 -0.313834074993248
      0.24466227563388226 0.020421121564560551 -0.20848067227917916
      0.05640541562568651 0.076429957968022044 -0.019534239119153935
      1.0031465280761134 0.087578525376182742 0.22101298121432231
      0.22274345179935745 0.14016378400031268 0.5190725642030215
      -0.17335479414351204 -0.4583549593049191 -0.24003286222007636
      0.048085697564756884 0.0095558965730837692 -0.18373557556543474
      0.034032385456821745 0.082425288542120043 0.00082238957637359585
      1.2734840901382791 0.096098896531033123 0.2225622291500301
      -0.21057115697191894 0.11214620097525627 0.42971350383711643
      -0.13232603844735741 -0.23593616309240689 -0.19379837647783424
      -0.033516691141439424 0.0084086570651156958 0.066375894073906039
      -0.29470050007386944 -0.011581794326157639 0.03764025876534792
      2.0666874810253497 -0.040360084391128238 -0.017770751665703098
      -0.56393124108828507 -0.058959590747814872 0.1677769432745374
      0.15017526295486208 -0.54617681976078747 0.057043651919504661
      0.019092973131785481 0.017245017842587692 -0.081159853621166178
      -0.15164491922951878 0.0055352115736818598 -0.024568807322202485
      1.7085344749135354 -0.0061071639495906931 0.068705344447154371
      0.0079724791233267544 -0.0017547208412116207 0.092457152124835046
      0.056849687554387386 -0.40849881397196236 -0.044624118264371744
      0.24063916682173353 0.011622747187006715 -0.21722766283077347
      -0.019500068285608393 0.038778955762917559 -0.0032800037203090785
      0.65230227620597647 0.037152507163244454 0.15010073508364805
      -0.094636263964781933 0.054074978867612394 0.52503780206546213
      -0.046833685686406112 -0.29930602898778386 -0.15910167277295412
      0.32117213993939181 -7.2379609839469795e-05 -0.11518536515541782
      -0.15037721435593704 0.0087510409957208875 0.010675228637463983
      -0.68676784315855066 0.01742261012844756 0.022737878731652571
      -0.45315787734397217 0.041156889994427015 0.28059766859516289
      -0.035033012436444126 -0.5143938440353043 -0.083224163517464075
      0.13782957146338976 0.002229901562289441 -0.2045088227083158
      0.017086116874913911 0.035297380468523792 -0.0019486139672211889
      -2.1663008262224879 0.034113584220906615 0.063405192230646099
      -0.069486678146772174 0.05636575064522252 0.075658083071422633
      -0.10013172998780726 -0.03666113936331214 -0.17298538230417226
      0.085982733812518863 0.020172321395712272 -0.21604502370933065
      0.11427469236249853 0.029338330274899346 -0.024127978290572751
      -2.4933389728519066 0.035685928159321728 0.075652867109668773
      0.10129057127487688 0.061533365299924654 0.014275722402023487
      -0.092510146025970075 0.34059494310087263 -0.20461073094035018
      0.106201286593803 0.014364524760408833 -0.025639430783178006
      -0.028363125029325597 -0.016657383425767613 0.025354130421628113
      -1.2113265135242777 0.0028232685820987562 -0.032072879457454233
      0.37219683254448305 -0.0054917018900321806 -0.031661874426358969
      -0.022875525290998292 0.26508967990201665 -0.062418986867862118
      -0.062921187849948823 0.010552061512278801 0.14836064536423998
      -0.22079140896843147 -0.059773937373213522 0.02096347124705783
      -0.1257448594113651 -0.066688880119057978 -0.12188444752055887
      0.91776215282746476 -0.078217334506750752 -0.044369283823067922
      0.073275414233879857 0.11127633981550562 0.11107240141512634
      -0.23095664491639462 0.00084501825470335065 0.09991596776769994
      -0.23817751200933598 -0.017093760320791743 0.028176683198241483
      0.3018774626830566 -0.066180226754415039 -0.0078052649394520952
      0.22096353961838877 -0.060265984398504106 0.06657668946038553
      0.026064049188629049 0.17843530119498316 0.094203185017489199
      0.019979328594192568 0.036123495304321573 -0.080860134825521582
      -0.098507805244949898 0.024532647107318544 -0.024895663967128955
      0.10182141678394234 -0.0095058504270670464 0.25982757681710184
      -0.55528142078335851 0.021747163450922799 -0.20789059883051611
      -0.092991441015876447 0.31704056397078761 -0.09635529200076344
      0.25075076623271864 0.029794196467067467 -0.29393593149753067
      -0.070039186445320104 0.041572087549649875 -0.029059154863548726
      -0.57683815063810084 0.017543118056840591 0.41434272736004985
      -0.19922231252886474 0.06588443804728647 -0.53454825194287403
      -0.20423009067447176 0.43419095198609114 -0.26482260210687847
      0.1947256348791844 0.0094504112080083941 -0.13082639712869432
      -0.40858681884070946 -0.0095034800555222499 0.033941212524735691
      -0.33041585511301019 -0.067364908954521588 0.096764446902079165
      0.094817592211751497 -0.057761818483867973 -0.0042035152137822824
      0.028300911394273074 0.13072032328102015 -0.079282492723963816
      0.016054567441416954 0.026725887593380862 -0.13029999284244337
      -0.27810907719792599 0.035467331383706058 0.0055843127023190347
      -0.54502771255450211 -0.0051768744605663036 0.11328188723803018
      -0.54237963422330837 0.003409727222253447 0.073687451310568558
      -0.069402917343696954 0.29934452962624492 -0.088674277615586425
      0.097312075032728346 0.020488591256013308 0.079482284072062953
      -0.23601081755922135 0.010374736966524672 0.0059320585817581204
      -0.60319538547343765 -0.0056717957202335016 0.02120808464125189
      -1.2679846163940229 -0.003905400295147837 -0.23848249107798442
      -0.056262482612798793 -0.015197221242000496 0.015342784972905836
      0.010961832515600654 0.043690980749450839 0.14368563477925939
      -0.096080141470322677 0.072060746989721938 -0.045131415294568926
      -0.44562172570042458 0.049249078009522836 0.060090935412838685
      -0.90216817326479037 0.05073709579451359 -0.58855625119388266
      -0.16296626375544229 0.097975053901212278 0.0841347870109658
      0.027197844908889972 0.067389459289560943 0.110570671580243
      -1.2056649557299643 0.17222279629581433 0.036201208441997083
      0.42981711450155446 0.019454099354443116 0.091210395912285469
      -0.75114536144574839 -0.054911170329593598 -1.2821629210594667
      -0.27838724956544192 0.16375529618579612 0.036759991407897229
      -0.11963910211362648 -0.050835306254295352 0.16041270699649876
      0.54543270358380014 -0.049284508043929399 0.075675753146182176
      0.94197362333806989 0.026262122881595705 -0.78404093139040942
      -0.56016436114342827 -0.0064003769899896694 1.381239189174986
      0.34482402244727728 1.1018135479675997 0.20702076656823967
      0.034521195688958631</_>
    <_>
      0.62696466474230605 0.59724035315579127 0.65539868986553007
      -1.4051512007376674 -1.0517310743534025 1.0697879012888023
      0.23699208136244859 0.82148069541553304 -0.6704042775908996
      -0.85683260601550171 2.0241920863521301 -2.0294794678885535
      -0.31496058954590389 0.33019184707081201 -0.86152505086652631
      0.80211421799762561 -2.6357431779086831 2.6264870053330354
      -0.47302095523621629 0.3963797831006251 2.7232476959894587
      -2.7099913191516212 0.93943601895081064 -0.27465694735338025
      -2.021227641928407 2.0521650424138493 1.1567701680238331
      -0.26564119325630203 -1.5176650275846824 1.5396799097126799
      -0.24958634447519215 0.17253789009961684</_></weights></opencv_ml_ann_mlp>
</opencv_storage>
