<?xml version="1.0"?>
<opencv_storage>
<opencv_ml_ann_mlp>
  <format>3</format>
  <layer_sizes>
    120 15 10</layer_sizes>
  <activation_function>SIGMOID_SYM</activation_function>
  <f_param1>6.6666666666666663e-01</f_param1>
  <f_param2>1.7159000000000000e+00</f_param2>
  <min_val>-9.4999999999999996e-01</min_val>
  <max_val>9.4999999999999996e-01</max_val>
  <min_val1>-9.7999999999999998e-01</min_val1>
  <max_val1>9.7999999999999998e-01</max_val1>
  <training_params>
    <train_method>RPROP</train_method>
    <dw0>1.0000000000000000e-03</dw0>
    <dw_plus>1.2000000000000000e+00</dw_plus>
    <dw_minus>5.0000000000000000e-01</dw_minus>
    <dw_min>0.</dw_min>
    <dw_max>50.</dw_max>
    <term_criteria>
      <iterations>3000</iterations></term_criteria></training_params>
  <input_scale>
    7.2441224692446742e+00 -6.0454836634672429e+00
    6.9677542643100665e+00 -5.5190498872621134e+00
    7.6378893057826307e+00 -5.8522014952110606e+00
    7.1318181388662554e+00 -5.2760866739039258e+00
    6.1253347491501104e+00 -4.2821223597808267e+00
    5.3352866040670346e+00 -3.4990458649841960e+00
    5.0457216375647498e+00 -3.1649460832987608e+00
    4.9806312410896529e+00 -3.0938077817195690e+00
    5.0743188893149727e+00 -3.2183302399340672e+00
    5.4332637653792144e+00 -3.6380561946623180e+00
    5.7975953697058609e+00 -4.1113414068131862e+00
    6.1186249545664211e+00 -4.5228106283035805e+00
    6.3051965932802458e+00 -4.7660547160364395e+00
    6.2096933279670221e+00 -4.7235387037303793e+00
    5.8769336880782514e+00 -4.4355269541105313e+00
    5.4935604204976656e+00 -4.0906296047054020e+00
    5.4040052431868562e+00 -4.0036132910498496e+00
    5.3018842723269071e+00 -3.9371631979996176e+00
    5.2269248987288597e+00 -3.9056632945912049e+00
    5.2650206970730364e+00 -3.9612811889578916e+00
    5.5494600832150649e+00 -4.2075905390927772e+00
    5.6386433326122685e+00 -4.2777158348581503e+00
    5.4429912363812036e+00 -4.1249485546715521e+00
    5.1318153412670275e+00 -3.8210279217773135e+00
    5.0341520723126694e+00 -3.6884305754205120e+00
    5.0168426737004141e+00 -3.6260312726412551e+00
    4.9606289328075164e+00 -3.5807555001045279e+00
    5.0293182165322081e+00 -3.6343999438194716e+00
    5.2649818826807495e+00 -3.8165221846618711e+00
    5.1312970918269274e+00 -3.7418576937227286e+00
    5.0219369929971931e+00 -3.6992504898414618e+00
    4.8415567639453654e+00 -3.5791611121261977e+00
    4.8792919386482660e+00 -3.6223744975913852e+00
    4.8979289396369241e+00 -3.6728260554729903e+00
    4.8815447117436586e+00 -3.6886088278666205e+00
    5.1423977404020720e+00 -3.9508580606382018e+00
    5.3541760448614193e+00 -4.1618540560282495e+00
    5.1562071913317871e+00 -3.9712936940157628e+00
    5.1580683658372291e+00 -3.9143679265340654e+00
    5.1560487440659788e+00 -3.8626349583168502e+00
    5.1488052309482120e+00 -3.8180399290301521e+00
    5.1094814711885785e+00 -3.7968549347702685e+00
    5.0759097064021068e+00 -3.8390408343491300e+00
    5.0606905436102316e+00 -3.8417530014192836e+00
    5.0569996207091297e+00 -3.8197999519373615e+00
    5.3019966936667942e+00 -3.9688909962084442e+00
    5.6244919035012488e+00 -4.1861421041642659e+00
    5.3196692071208620e+00 -3.9223331102175099e+00
    4.9966108568375187e+00 -3.6794970066358537e+00
    5.2029578239263259e+00 -3.8862357051786183e+00
    5.9680074977756945e+00 -4.5590757154534431e+00
    6.3004348690227845e+00 -4.8588067954167879e+00
    6.1682519250303312e+00 -4.7494229673960522e+00
    5.9861274896019712e+00 -4.5617796446883689e+00
    5.6558036826020270e+00 -4.2219250274050779e+00
    5.4364241601286993e+00 -3.9998829876822417e+00
    5.5215768028026622e+00 -4.0197086091957663e+00
    5.4773638858498472e+00 -3.9570970604760083e+00
    5.3471398355349891e+00 -3.8614145106109539e+00
    5.2795748146606911e+00 -3.8009583318605284e+00
    5.0362058278030348e+00 -3.6167129790046371e+00
    5.2834925617418458e+00 -3.8312867444816416e+00
    5.9220149425771726e+00 -4.3969148090808368e+00
    6.0808314711122380e+00 -4.5896390175918578e+00
    5.9885856005561484e+00 -4.5104233580248252e+00
    5.4793669551003275e+00 -4.0569977591914510e+00
    5.2899848713360766e+00 -3.8855232973132043e+00
    5.6218347755309122e+00 -4.1480006237368450e+00
    5.6192538185248369e+00 -4.1776096291481357e+00
    5.3181333860737228e+00 -3.9675773190728316e+00
    5.1045793030899453e+00 -3.7789261755560695e+00
    5.0086402210653063e+00 -3.6896098776459376e+00
    5.0924490185784048e+00 -3.7696726108654310e+00
    5.0904434753487369e+00 -3.8277659067774987e+00
    5.1995444162818529e+00 -3.9430134950142657e+00
    5.6222583606282877e+00 -4.3108369814470375e+00
    5.9376827565802150e+00 -4.5874473022741986e+00
    5.8834210521430936e+00 -4.5174887608336647e+00
    5.5622208074158461e+00 -4.2324981028014097e+00
    5.2208177833075071e+00 -3.9679568556917224e+00
    5.2009404717665131e+00 -3.9710958698418950e+00
    5.3532175573936955e+00 -4.1028622394919587e+00
    5.4287493272847493e+00 -4.1870041585134379e+00
    5.4190888841266620e+00 -4.1971013965457047e+00
    5.4178145112284906e+00 -4.2167692155913494e+00
    5.3531622946491169e+00 -4.1641361432340238e+00
    5.3324975586045209e+00 -4.1199445874396554e+00
    5.3244176631471234e+00 -4.1191619675806894e+00
    5.1245334282317287e+00 -3.9683859487344240e+00
    4.9830824481817126e+00 -3.8190284518966755e+00
    5.0169692084941371e+00 -3.8315624926078158e+00
    5.4511602603528466e+00 -4.1911014558012356e+00
    6.0164409482656893e+00 -4.6939267202433026e+00
    6.0197376869250334e+00 -4.7851528789532622e+00
    5.7109542372905766e+00 -4.5681369634903914e+00
    5.7585008768374593e+00 -4.6479151641273040e+00
    5.7808830987549307e+00 -4.6661307978232323e+00
    5.7844813557447363e+00 -4.6499837224895026e+00
    5.6820454385301380e+00 -4.5229998241876697e+00
    5.9765459655470350e+00 -4.7718968089811380e+00
    6.6346500937451314e+00 -5.3151407885480904e+00
    6.8446687342366017e+00 -5.4882997442084784e+00
    6.4149002893557192e+00 -5.0658039986814281e+00
    5.8652857939862635e+00 -4.5507926037855375e+00
    5.6872711015487427e+00 -4.3694362279429297e+00
    5.7055705129359495e+00 -4.3665140923218599e+00
    5.7459394927604110e+00 -4.3896851649800501e+00
    5.7236161547033744e+00 -4.3340497362470263e+00
    5.8789327432448673e+00 -4.4443705644833029e+00
    5.8788662839387786e+00 -4.4116774659292179e+00
    5.7405437359241800e+00 -4.2767025306998550e+00
    5.4628957664921529e+00 -3.9807637882705151e+00
    5.2648861963594609e+00 -3.7282074937711904e+00
    5.1592717380026905e+00 -3.5037657103205531e+00
    5.1038168676617639e+00 -3.2783065058206096e+00
    4.8006600158288428e+00 -2.9720787614550765e+00
    4.4914464807357302e+00 -2.8092832879214491e+00
    4.5136666945427626e+00 -2.9684767244081032e+00
    5.3882743805644049e+00 -3.8990937494949884e+00
    7.0203973259996673e+00 -5.6288378918844479e+00</input_scale>
  <output_scale>
    5.2631578947368418e-01 4.9999999999999994e-01 5.2631578947368418e-01
    4.9999999999999994e-01 5.2631578947368418e-01 4.9999999999999994e-01
    5.2631578947368418e-01 4.9999999999999994e-01 5.2631578947368418e-01
    4.9999999999999994e-01 5.2631578947368418e-01 4.9999999999999994e-01
    5.2631578947368418e-01 4.9999999999999994e-01 5.2631578947368418e-01
    4.9999999999999994e-01 5.2631578947368418e-01 4.9999999999999994e-01
    5.2631578947368418e-01 4.9999999999999994e-01</output_scale>
  <inv_output_scale>
    1.8999999999999999e+00 -9.4999999999999996e-01
    1.8999999999999999e+00 -9.4999999999999996e-01
    1.8999999999999999e+00 -9.4999999999999996e-01
    1.8999999999999999e+00 -9.4999999999999996e-01
    1.8999999999999999e+00 -9.4999999999999996e-01
    1.8999999999999999e+00 -9.4999999999999996e-01
    1.8999999999999999e+00 -9.4999999999999996e-01
    1.8999999999999999e+00 -9.4999999999999996e-01
    1.8999999999999999e+00 -9.4999999999999996e-01
    1.8999999999999999e+00 -9.4999999999999996e-01</inv_output_scale>
  <weights>
    <_>
      1.5893340841681766e-01 1.6823731232141588e+00
      2.8791140065183191e-01 4.0976238844278912e-01
      -4.2790986819830450e-02 -5.7721189435922426e-01
      1.3865585854252901e-02 -3.5704116520955581e-01
      4.4346781460268686e-02 3.2539651242365319e-01
      5.5891745494776525e-02 2.8177622495130755e-01
      -2.2261723597805905e-01 4.3361869281244875e-01
      -2.1927316912101538e-01 -1.6067193447975348e-02
      2.7839496192586510e-01 6.9078151840768390e-02
      -7.0744364114210379e-01 1.4785487863017044e-01
      -1.8386817526886604e-01 -3.2116169565982389e-01
      -3.6663091294669886e-01 1.8815857370017928e-02
      3.2420221598442010e-03 -4.6060783202705451e-02
      -3.6356184434703093e-01 7.2810384642136378e-02
      3.5753623523475880e-01 -2.7173261146451683e-01
      -1.5019513747601737e-01 4.5402551235464877e-01
      5.3700873242367408e-01 -6.4474480390032285e-01
      5.9848576521768970e-01 -1.1424786981094495e-01
      -1.3417171864148427e-02 -3.4167257167870911e-02
      -1.6532587668499174e-02 2.9391246609631627e-01
      -1.0636295702223333e-01 -2.4069699750115602e-02
      -1.2702510859804908e-01 -3.3480040371597991e-02
      -4.3656710230413637e-03 -8.1005408174456964e-02
      -2.2847505037121643e-01 6.9942885753850353e-02
      -2.4818791468354723e-01 1.2632638045868394e-01
      3.8867245294471692e-01 1.7362489769270240e-02
      1.8779692784921842e-01 -4.6776438374633622e-01
      7.1550522644652989e-02 4.8904267080410047e-01
      1.0783862486701976e-01 -4.5797172151276261e-01
      6.0208671715341888e-01 -4.3895593035143808e-02
      -4.9472518992172192e-02 -8.0980948632584038e-02
      -8.4506237145384189e-03 1.1479636817449089e-01
      -3.0072675420382243e-02 3.5843020757245814e-01
      7.8310478083168433e-01 5.2590684026117451e-01
      -4.7661292166988355e-02 -1.2347008018649651e-01
      2.2446378127623437e-01 1.1024398909586069e-01
      -6.0867297726401363e-02 1.9392590560479386e-01
      1.9110357031128400e-01 -1.2312424293153983e-01
      -1.6942724956008042e+00 -3.0690359367893644e-01
      -1.8576195747534167e-02 7.1093750862093436e-02
      -5.1547522496895601e-03 7.6586168587759762e-01
      8.6269418524196562e-02 1.0541703766809699e-01
      -4.4977340373745006e-01 1.9970056179469736e-01
      5.9364320542473967e-02 -2.6496078715376814e-01
      2.9532752317926481e-01 7.5715947094710551e-02
      5.7262129141916807e-02 -1.1769876195561318e-01
      -4.6972283903074113e-01 -4.4218198683726069e-02
      2.0919915482620559e-02 -2.4917447913561724e-01
      -7.5173437724156952e-02 -3.8129923221923580e-02
      -4.6036216793176696e-02 5.5190829571510258e-01
      -5.0671148060088733e-01 -3.8195112469284576e-01
      5.3284601695506813e-02 2.3000413796505321e-02
      2.1975359737555222e-01 2.0751476713518263e-01
      -1.9365437460024992e-01 1.4892211780178458e-01
      -2.8288617684046721e-02 7.6295808806305834e-02
      -8.0547563848746256e-02 -2.5633332023026068e-01
      -3.0091666794812549e-01 -5.3324129595662295e-02
      1.7787817809031201e-01 -3.4970282486444582e-01
      -5.2342260749812453e-01 2.2558592764130622e-01
      -4.5915196498326864e-02 1.3453350637603406e-01
      3.8889647094622692e-01 -4.6183870814534939e-01
      -1.5946978454732445e-03 1.5038147195034751e-01
      1.7425510021988219e-01 -1.6459749736126612e+00
      -5.2753041285197144e-01 -1.1177121884040773e+00
      -1.1305243148054249e-01 -6.7389214058723657e-01
      -1.3472391401452094e-01 -4.8463410891457726e-02
      3.3027502029878163e-02 -1.2386409160958000e-02
      -7.4378527649066523e-02 1.1737106324963260e-01
      -3.4529427590916512e-01 1.6508963550538397e-01
      3.2766054288721792e-02 3.2503408004798828e-01
      -6.2411226776852424e-01 -1.2727967213204872e+00
      -6.2312902657124292e-01 -2.5505505801806982e-01
      1.1788388951280422e-01 5.9877007719630532e-02
      -1.8943602095128666e-02 -3.5693212354776058e-02
      6.1552881842012859e-02 -7.3462949696447244e-01
      5.5023619942737571e-02 -5.2929638901100196e-01
      1.3716542794070233e-01 -1.4509755481870251e-01
      1.5990370213854403e-02 8.0703343598752687e-04
      1.2572198526994913e-01 -1.3169298536173599e-01
      -2.3812947981099475e-01 6.6873696981356950e-02
      4.3629531170915802e-02 2.4391736338906830e-01
      5.0240210332367596e-01 -2.2219270030860359e-02
      -5.4822554615507821e-02 9.4691345379102509e-02
      -2.2802840117886092e-01 3.1861109164961554e-01
      -1.0518477904800974e-01 1.6764653274692992e-01
      7.7354924494695931e-01 4.4599769548202911e-01
      -1.0007247299696836e-01 -6.8192506824103563e-02
      -2.8040289590156775e-01 1.1594133203468070e-01
      2.7658824630150941e-01 3.5745192909397433e-01
      4.4250058438501565e-03 -9.2279912240754311e-02
      8.8153389036001603e-02 -1.5882888918925600e+00
      1.8700053208473502e-01 -1.2662014063365318e-01
      -2.1852917547150807e-01 6.9758485479077925e-01
      6.0964554494989852e-02 -6.4641870709887278e-02
      -5.0990595178340196e-02 -7.0663498125347057e-02
      1.1871097564920334e-01 4.5591006510066701e-01
      5.3657434692521710e-01 -1.7300518955132688e-01
      -4.1463336505831672e-02 -2.4349924560843855e-01
      -1.0191565207258000e+00 1.7918279445440585e-01
      -1.2394604703109657e+00 -4.7756245220740130e-02
      5.9075374884875398e-01 1.7318980002593304e-01
      3.0195072666937411e-01 -3.8802253555610032e-02
      7.5259563978771538e-02 7.0079844285046689e-01
      9.0630835239674468e-02 3.6093020251172414e-01
      3.1663503378093850e-02 6.0928777005277074e-02
      -3.0692772395799006e-01 -2.2664751072331737e-01
      5.6525408766794599e-02 -5.9635675343060679e-01
      2.6974606980480059e-01 4.8965955997217747e-01
      2.7989732963180490e-02 3.0536611132638780e-01
      7.7013312547720369e-02 -5.8471700533690933e-02
      1.2115013449442634e-01 -4.9992888189815322e-02
      4.7933262737343374e-01 6.6096792157139739e-01
      1.6370516870227672e-01 -6.5503734913448658e-02
      -8.6070059947033173e-01 -2.7260505022020293e-02
      -4.6241809219658320e-01 -4.5951016776601114e-02
      5.1517813720862937e-01 -2.9472272716684622e-01
      1.1597142008395550e-01 1.8694112196857704e-01
      2.0321870759160199e-01 -1.5565481759842667e-01
      -1.4404107156437509e-01 1.9860450500907759e-01
      9.9557733715241126e-01 3.3587424179415326e-01
      -1.6510935738650012e-01 -1.1253270935420655e-01
      -1.2736652257003329e-02 -3.6139074238314903e-02
      1.5834497165245282e-01 2.7853490443535685e-02
      -4.6380056429489037e-02 -6.1457921325299238e-02
      -7.2687591158087832e-03 1.2418904952068267e-01
      -1.4499161019172394e-01 -8.6179570302405945e-02
      4.2272150087672611e-01 2.4891156550389437e-01
      -3.0430105730407941e-01 -1.3408307236916545e-01
      -3.4253502546487041e-02 8.1589675742665707e-02
      -2.1469833449020460e-02 -1.2166240444436464e-01
      -5.7651811688468751e-02 2.4704582744781037e-01
      -2.2481213622716473e-01 -1.0680643017423286e-01
      1.6515990852648994e-02 1.4735361721218237e-02
      7.9196755734000354e-02 1.6667794188083898e-01
      -2.8610993170502469e-01 -1.5109396660387475e-01
      -7.1779345875015652e-02 1.3321396686794387e-01
      -1.0222434417927442e-01 3.5575180501917186e-02
      -2.5864013931035135e-01 -6.2417291357750770e-01
      -9.7557270437209409e-02 -7.1300594045998245e-01
      -2.6757992180058001e-02 -1.5176232799458192e-01
      -4.3777262596622582e-02 -1.7485633494947797e-01
      4.4544921333671078e-01 -6.4235561056812298e-03
      -4.2560615922677444e-02 7.8335696863424439e-02
      3.9144769133567583e-02 -1.3814146268707342e-01
      1.6173990542574301e-01 -5.5642303934787730e-02
      -6.0117498828007827e-02 -1.4922708613352815e+00
      -3.1436620547587196e-01 -1.2884583103078318e-01
      -2.8615701495696111e-01 -1.1446964879138991e-01
      3.5758685759593157e-03 2.2915008315127435e-02
      -4.0186286542646216e-01 -1.5966880211804774e-01
      1.9257612504888127e-01 -8.3834884658260944e-02
      1.2622446209909546e-01 2.1625173222252402e-02
      -4.7463615985538843e-01 4.8313341072587901e-01
      -2.5429385204700095e-01 -2.6171482252651945e-01
      5.5741919281956844e-03 -2.9989989045747090e-01
      3.5544574596854867e-02 7.6818808923209822e-03
      2.2085204213048187e-01 -3.9681961444266867e-01
      -2.9687455433764026e-02 1.0862019413213686e-01
      1.5558323326813472e-01 2.8415652384655883e-02
      -1.5050983107049476e-01 6.5339508279938618e-02
      1.1322318480250302e+00 -2.3673503184160928e-02
      4.4310934733048390e-01 1.8425103473637038e-02
      -2.5546179508264499e-01 -1.9119119338066311e-02
      1.7607666727581472e-02 -2.3148231265000877e-02
      -9.4359573960541301e-02 -1.6999556124471873e-01
      -1.9537122489764858e-02 1.6460182104859725e-01
      6.3741626662208359e-04 -4.5688959588262246e-02
      -6.1339988018473283e-02 4.6228851362137358e-01
      4.9669457519947759e-02 4.0801948851007372e-03
      -2.2060720407347856e-02 -4.1724634416385957e-02
      -1.6483096383433418e-01 4.2532662467563925e-01
      -5.1176157835797431e-02 -6.1513876439350974e-02
      -3.4905368014978760e-02 -1.4244008331375368e-03
      9.7334381330926156e-01 3.9578779026156885e-01
      -1.0127592997040431e-01 -1.4614099172628051e-01
      2.8402354054014006e-01 5.9944467227098779e-02
      -1.4646109633874915e-02 4.0876360486861198e-02
      9.4185906564564867e-02 -1.4096712312318180e-01
      2.7734106982496412e-02 -2.6810088362494439e-01
      5.5325251996292582e-02 3.7309290241188606e-02
      -1.5351314301251448e-01 7.9650672679135326e-01
      5.4603583747614828e-02 9.2265963455998343e-02
      4.3958626249395352e-02 -2.5692073492949458e-01
      7.7789585530386035e-02 -3.6623519091435581e-03
      1.0040205519828151e-01 -4.7001518460428882e-02
      -3.3708895777296494e-01 -5.5403280540533639e-01
      -1.1634441897696245e-01 4.3379948803963821e-02
      -2.5357400621076559e-01 5.7788835593526280e-02
      -3.6600139940865889e-02 1.2641330550186139e-01
      -2.1470057060401445e-02 9.0042237501785791e-02
      -1.8056073108760850e-02 -6.3145693111152268e-01
      2.7488395677862687e-01 5.4776106447636530e-02
      1.6821631369342904e-01 -8.2445099168296329e-02
      -5.6177539497899873e-02 2.7986615250343871e-01
      3.2141533942794109e-01 4.9457395885953451e-02
      -1.2858353220923135e-02 8.8939920052645050e-01
      5.5317833738516453e-01 2.0894907202956673e-02
      -6.9797043609462386e-02 5.2306920600680229e-01
      9.8595018789087746e-02 -1.4661310470853076e-02
      -1.8830757026225037e-01 2.8737315509069306e-01
      5.9494596652058340e-01 -3.6148787251973354e-02
      -4.1786619512934664e-02 1.0674906432704837e-01
      1.9742393900142211e-02 -2.2185881637342897e-01
      1.8707785130145441e-01 6.0253998159121545e-03
      -1.6674619169073390e-01 -5.2120313036991932e-02
      3.8968569645311169e-01 2.9739806994117990e-02
      5.3338914199044428e-02 -1.8045768952852287e-02
      -1.4722931366187138e-02 1.2093379198815195e-01
      2.8650433447841150e-01 -2.6460717630930438e-02
      -1.7801423499294231e-01 -7.4762777183996099e-02
      4.1001113466700566e-02 2.7502330554633908e-01
      5.1274902579310958e-02 3.2263570767709013e-02
      4.7088596231387718e-02 -2.5451091012140914e-01
      2.2748269739675760e-02 5.6285216527278269e-02
      5.4562418380394129e-01 -6.8459667681852410e-02
      -4.9332169164624812e-01 -9.2283020390357684e-02
      6.8028313473765312e-01 -6.2849878714303509e-01
      -2.2437235095971195e-01 -8.0198413515537803e-02
      1.4891703874227588e-01 7.2326081837314982e-02
      2.8502471246784855e-01 -2.0998917611832335e-01
      3.9984504636028980e-03 -1.6290367612486004e-01
      -4.1204287241426402e-01 1.4322158929382611e-01
      -1.7288364450659080e-02 -5.1080753706407599e-02
      3.4467239086846546e-01 5.8082947294138577e-02
      -1.5260225177951071e-02 4.2214041080013649e-02
      -2.5255419087221165e-01 -1.2402175028031023e-01
      -1.3206291171143794e-01 1.2337350485148819e-01
      -1.6864972328504965e-01 1.2040320257900686e-01
      2.8180939734031074e-01 -2.6070740471560178e-01
      -3.9455163711350556e-02 8.4194643289527304e-02
      3.0578574148773902e-01 4.6209889653171526e-01
      -8.0312547466321466e-02 -2.0224690768011061e-01
      -1.5565355612605802e-02 -6.7794841391305358e-02
      2.7876933759311023e-01 -2.2715140106836035e-02
      2.8705417042361688e-02 -8.4490630679520881e-02
      -5.2374212514760343e-01 2.8145037970802804e-02
      -1.0262710176467971e-01 7.0943833948604207e-01
      6.3483810619874581e-01 -2.0897317507964575e-02
      -1.4016838600734217e-03 -3.4029880319723948e-03
      -2.2410039045813243e-01 -8.5124809685137873e-02
      -1.3852750040955911e-01 2.0802409848393268e+00
      2.1818703501055151e-01 -7.9228177225418783e-01
      3.8399343710747137e-02 -2.2011203565195134e-01
      1.0130484732725691e-01 1.4293017055552297e-02
      5.5395149021176912e-02 1.0708890869885487e-01
      -1.4095105567588950e-01 1.1302899641679998e-01
      8.4527832410672202e-02 -6.4364942897223984e-02
      -4.9758779310264567e-02 -9.5581935666238382e-01
      1.1116332746287563e+00 8.7509158156121022e-02
      -7.3288918775175682e-01 -4.6215057692800536e-02
      -1.0939659715801098e-01 5.4330800786652600e-01
      3.6816352272151090e-02 2.5864061426278967e-01
      9.0436648440381739e-02 2.4306951257448117e-01
      1.6256624978311675e-02 8.2462665752218500e-02
      -2.3192728075041209e-02 -4.7664123886238018e-03
      -2.8449739770968135e-01 8.7405943109013090e-03
      1.8039366000383170e-01 -4.9443613735752442e-02
      -1.6847555745360834e-01 -1.1394728298821494e-01
      8.0808001962589124e-02 1.8760072517460150e-01
      3.4985290425994592e-01 4.9687548694392018e-03
      2.3780402061738193e-01 -3.4583012765955712e-02
      1.3024019655924973e-01 -2.8398991273102480e-02
      -1.0813260401555046e-01 -3.0483339305072715e-02
      -1.0750135512146482e-02 -2.1591475983494153e-03
      5.9179526479460572e-02 -1.8247864244674505e-02
      3.2006015517053749e-01 2.5791572594048284e-01
      5.8633464593653144e-02 1.8459250294944882e-01
      -1.2702267553103785e-02 -8.2776667759714817e-02
      1.5918400222363055e-01 -1.0944574698466087e-03
      5.9381714847350296e-02 -1.2353469861642653e-01
      8.4137462285509834e-02 1.5434557209318654e-02
      5.3007523476413534e-02 -2.9254678339130740e-02
      7.1628159028412644e-02 5.6812586919310504e-01
      4.3120475723142210e-01 2.2541019477352814e-01
      3.8834833712362168e-02 -3.0609900824044114e-03
      5.6452838055633375e-03 2.7178087483499133e-02
      2.5694407035196404e-01 -1.5545094387743810e-01
      -3.8869414858733992e-01 3.9666097588046442e-02
      1.6713891835979688e+00 1.4846413141923870e-01
      -5.1964614016814646e-02 1.5007698694902694e-01
      7.5424162893603597e-01 7.1067962863849687e-01
      -7.5190599604702674e-02 1.0804865357098652e-01
      -2.4753652836124354e-01 -2.6197431349645198e-02
      1.3516891333577610e-01 -4.5568930416374864e-01
      -6.5319929424888201e-01 1.3097747404970281e-01
      2.6763760016953120e-01 5.1599683219558690e-01
      -6.6505457010252608e-02 2.2471015624964171e-03
      1.3204471848642169e-01 5.7559989906778096e-02
      1.5227436603689670e-02 2.2779845795931980e-02
      3.3359864361016366e-02 -1.2889285595079106e-02
      -3.9827169290261216e-01 2.8072594847396548e-01
      -5.3041318579787422e-01 -2.8187751843240944e-01
      4.5032994910129423e-02 1.3759828972878430e-01
      1.0159499974975763e+00 -3.7971032955880488e-02
      6.8933627103132411e-01 5.9073349827214718e-02
      -5.6395348478786156e-01 -1.2618073331347238e-01
      -4.1545006035650217e-01 -1.3711579422301315e-01
      8.0360336853370837e-02 -4.9400917247200438e-01
      -4.1999580846785350e-01 -7.8683569281354437e-01
      -1.3069662574877758e+00 3.3249890393711540e-02
      2.8774435174577140e-01 8.0832709542621228e-01
      2.3974288691598211e-01 -2.8358701264287287e-02
      2.6111401500303777e-01 -8.5862686322309667e-01
      -4.7426133356893557e-01 -3.0778041412657570e-02
      7.7598111904994035e-02 3.4053841660808987e-01
      -2.2276678816793422e-01 -3.3237974667550046e-01
      -4.9662698661846416e-01 -8.3685376933928135e-02
      -1.9442202642200554e-01 2.5481530989265432e-02
      1.5830081003043777e+00 -4.3011731064018909e-03
      4.2606004835399842e-02 2.1581649136315707e-02
      1.0526393263300597e-01 4.9835485546010305e-01
      3.0155449289218389e-01 6.6908949503978590e-02
      2.3130095412995055e-01 -4.8909759805312092e-01
      9.5232567263178400e-02 -4.2121384499493347e-01
      -1.2219748493762869e-01 2.7738931676989498e-01
      -5.9323039229930791e-02 8.8720420086248683e-02
      -3.8368772533465385e-02 1.7329019261541545e-01
      -3.9652103192769611e-01 2.7953569292537117e-01
      2.3455145144172290e-01 3.0826421142588695e-01
      2.2801179268830948e-01 9.2193138813226994e-02
      -2.8875494492528936e-01 -8.3589126496518840e-02
      -2.9665336247422919e-01 7.1557493266298747e-02
      4.0317881945763377e-02 4.3767818531939104e-02
      9.2844688849311074e-01 -9.9971619795309843e-02
      1.7270289344168199e-01 -1.9519560905729840e-02
      8.9090725779817415e-01 3.7657041049019119e-01
      -5.0739079697735272e-02 -3.7931120603583662e-01
      1.1500454384765280e-01 -1.3029418462678506e-02
      2.3358311486019644e-02 -9.1720988461144093e-01
      1.4720196312400246e-02 -2.2505415517809539e-02
      3.7335321831181495e-01 1.5632370783287268e+00
      -1.7958805028752059e-01 8.3303229955547131e-01
      3.0481300181519420e-02 4.5008851779643554e-02
      3.4849599294825340e-01 1.8780571749731076e-05
      -2.9833699937385827e-01 -7.5870513795923425e-02
      -2.8698018372239954e-04 1.0531388427716455e-01
      -4.9875776845463272e-02 3.8095317109085036e-01
      -3.9783060665550807e-01 2.6242760780123719e-01
      1.0401925935093754e+00 -1.7208801917769398e-02
      2.9935127150385016e-01 -1.3784771916335728e-01
      1.2454682194062981e-02 3.0648733258311694e-01
      5.0519974120570195e-02 2.4006783761914188e-02
      -5.3623100750000804e-02 -2.4298467514728472e-02
      -1.3684958909364980e-01 -5.4827589063480975e-01
      -9.0103109527340935e-02 -2.2112122107593804e-01
      2.9877222955383625e-01 1.1804659213362687e+00
      4.5934442389188722e-02 4.1939192578882470e-02
      3.1599205200054142e-01 1.0249347132651683e-01
      4.6393612986693789e-01 -4.4083326117906579e-01
      4.0640667017725746e-01 3.8280029519746889e-01
      -8.9702828418410666e-02 -2.4569482207198926e-01
      1.7730346153835542e-03 -1.1666216441060784e-01
      -2.0978439476140104e-01 -3.2781243302852392e-01
      2.2249020319214957e-01 4.8166884697551551e-02
      4.2667267938177433e-02 8.0091460083540233e-02
      -2.4628518502398034e-01 7.4545029331043747e-02
      -1.7176543164905284e-01 1.9406087017187754e-02
      3.6573774417741728e-01 -9.8036964960060438e-02
      -1.5520032903170666e-01 -4.8955228397949779e-01
      -2.8675890529628523e-01 -1.7854077438699986e-01
      9.2461252329630053e-02 4.4532697959650597e-01
      -9.0408645453182959e-02 -3.3780442654053272e-01
      -2.8672141174601769e-03 -3.4543263631038768e-01
      9.8873617187028612e-02 -1.6392322736658452e-01
      1.7732042285624366e-01 1.9316704971741230e-02
      -2.4582949143465427e-03 1.3891120921146849e-01
      -8.8343972044337318e-02 -3.9680266293446870e-01
      -2.1825179546716209e-01 2.9967195094187293e-04
      1.1112961094971172e+00 1.2609151706496940e-02
      -3.5405532099547471e-01 -1.2742036804182427e-01
      -1.0001954846007144e-01 1.6589911012023201e-01
      8.1743228909637866e-02 4.0658948258237365e-01
      -3.6454715708707591e-02 -3.4228316090580779e-01
      2.6014833740202037e-01 -3.2858045816710518e-01
      2.7808736523373883e-02 -3.8613425020668612e-02
      -1.1627131063797304e-01 7.1726966595157027e-01
      -8.5280150478499128e-02 -1.2336985918806294e-01
      -7.3927676783295442e-03 -2.1818022629709508e-01
      3.8754772080013633e-01 2.0692217603198945e-01
      -1.4807849987370223e-03 -3.7357035826579406e-02
      -2.6167841540500808e-01 2.5350189279122172e-02
      -9.7834079012904618e-01 1.8305659541904898e-02
      1.2872748365798681e-01 8.8515953361779837e-02
      4.7332473568207867e-01 8.7817250794040812e-03
      4.4818310279042095e-02 -1.8542334376941628e-02
      -7.3295830017333233e-03 1.1068319002714144e-01
      -2.4244021860457685e-01 -3.9624412566186956e-01
      -8.7136577352416214e-02 1.9289788745254996e-01
      -2.7160559701438575e-01 -7.0264981905647145e-02
      2.0767247835081760e-02 8.7182516852419255e-03
      1.3444499709189739e-01 4.1804920718676447e-01
      3.1555892142752556e-01 -3.6868833139045293e-02
      1.4274065742460193e-01 -9.8334331364837838e-02
      -4.0759762455793097e-01 -1.4513783851748008e-01
      3.6520636571662241e-02 -1.3149744585151227e-01
      -5.6108610258171245e-02 2.9359966215132349e-01
      5.8879517976644591e-01 -1.9109802095387454e-01
      -2.3598798952717740e-04 8.5104038006919847e-02
      -3.0532630983262660e-02 3.6242856478924709e-02
      2.8592834019035136e-02 -1.1853100378016369e-01
      -7.0156312548168542e-01 -2.0556179550901812e-01
      2.0077651321823351e-02 -1.5387237883798859e-02
      1.8235773720338713e-02 1.7307651719834699e-02
      5.8007254825999848e-03 1.1029832241866577e-01
      -4.1590929767880133e-02 -1.2818889444687023e-01
      -1.8682846968029193e-01 4.2775382084656211e-01
      -2.3299442951888447e-02 -2.6815899852374314e-01
      -1.0161999709617860e-01 -2.4672424769612131e-01
      -2.8868840444736060e-01 1.0302953498676302e-02
      2.5271444747541844e-01 -2.4835631917282913e-02
      -3.8047090472913721e-02 2.0983275659295825e-01
      1.3297456824476528e-02 -1.0888376124624673e-03
      -4.6172511170531012e-02 -1.5050581794180411e-03
      3.7364722142838575e-01 -1.6353557124593771e-01
      1.0186405431007448e-02 -1.7247887619260258e-01
      -5.7738124050511087e-03 2.1454416660776396e-02
      -6.6849383972273121e-02 1.5972509738882823e-01
      9.5743462487255973e-02 6.8604717610622562e-02
      9.9806803967921395e-03 1.9954362672173659e-01
      -1.0346857257370193e-01 1.0537526437385807e-01
      -6.6394083989201616e-02 1.9605527999569033e-01
      -4.0796502896092088e-02 -2.2073683975417288e-01
      -4.4375518401202185e-01 1.1183125163914388e-01
      -1.4077800111236094e-01 -2.5195289909789973e-03
      1.0313281379917531e-01 -8.5858626211759645e-02
      -3.2140582544931240e-01 -8.9676649849559628e-02
      -5.4776224561404303e-02 -9.3418628029407327e-02
      9.1018503598026324e-02 -2.6195249370537754e-01
      1.8115515759966003e-01 -2.8186533375765982e-01
      -7.4506293588526812e-02 -3.3862521327657671e-02
      9.1886448264100667e-02 -2.5371189247397252e-01
      4.6969337324581967e-01 -1.3319980983964533e-01
      -1.8756238580881834e-02 3.8492637947706049e-01
      2.9947161551673700e-02 3.6927407065094828e-02
      3.5454126386291078e-02 -4.9620253585091208e-02
      -8.7227168362875349e-02 9.3816504018720248e-01
      -8.7248166542409647e-02 -1.3691481456926197e-01
      -5.5691104984778550e-01 3.5032025747297529e-01
      -2.3414427269104740e-02 -2.6387958684441221e-01
      2.1193664980192147e-02 -3.6891438652365292e-02
      1.8891188713566665e-01 -8.4347666296492499e-02
      -4.1478985326922034e-02 -9.8724242653123193e-05
      -1.2324432342177805e-01 -4.9560972762135322e-02
      1.8676035551778276e-02 -3.2054911882825755e-02
      -1.2352529097916946e-01 5.2909332725924345e-02
      4.8774318164389124e-01 3.1153057411312936e-02
      -2.6351877408679052e-02 2.1882645000063459e-02
      -2.0701207681319753e-01 -3.7035618842504898e-02
      -2.1145764528773797e-02 -1.2856229036173059e-01
      -1.3469004815565509e-02 1.1336109889240689e-01
      -2.1566890958499421e-01 3.6843970114103237e-02
      -9.1857097288572623e-02 -9.1390051688640861e-01
      -2.8965092382966817e-01 8.1124132414128677e-03
      -2.9416605934239215e-01 -2.6339980121241924e-01
      7.0346533716644080e-02 -8.0232852736671606e-02
      -2.1188526146435324e-01 -2.4959644565248040e-01
      1.0298802351829274e-01 -3.0507318922864159e-02
      -1.3816287759717805e-01 1.9783802192492969e-02
      1.4455880340485538e-01 1.0839990981091939e-01
      2.1456317258535479e-01 -4.6844743928840534e-05
      6.1656104064580808e-01 1.2022502643546951e+00
      -6.5036066966418235e-03 -1.2128953400674063e-02
      -2.2788638638850594e-02 -1.7916507644316967e-01
      3.0236336877183283e-02 -1.2517646029650800e-02
      -4.3806328194643460e-02 2.2525507006159406e-01
      2.9954810535627402e-01 1.3775313210036685e-01
      1.4903410933315409e-01 2.2975782055999799e-01
      -5.2215625410734195e-03 1.0589810549394625e-01
      4.4420649125054397e-02 2.6849326859735768e-02
      7.3489281352207225e-02 -2.7029202578134518e-02
      1.7947023202707208e-02 5.4694921462767526e-02
      1.5867110220870394e-03 -5.8941802450698723e-02
      1.1829435044512446e-01 2.3973672774679120e-01
      -1.9895532054184425e-01 -4.7138535089014085e-03
      -1.5462641453656922e-01 -1.4303113938067273e-03
      1.3202254166714555e-01 -9.2029344273074887e-01
      6.6156202779518447e-02 -5.8753276100157077e-04
      -4.1311529545491797e-02 -8.3075158581609118e-02
      8.6691507384939661e-03 3.4467611373266105e-01
      -4.7097056300426093e-01 -7.9966899407112019e-02
      -7.5931162227443366e-02 -1.7147060109258749e+00
      -5.1228528869431400e-01 -7.7513824288374306e-02
      -2.7318422608960752e-01 1.6517329500224584e-01
      -4.6201408700882357e-01 2.1901451540780797e-01
      -7.5373652481466408e-02 -3.6815416110790138e-02
      1.7750399209573936e-01 2.2766374617204488e-01
      6.1227348199217733e-02 -8.9612281917482370e-02
      1.5121689292853330e-01 1.3042104808152158e-01
      -1.7948281859338069e-01 -6.2974348753810638e-02
      -1.0346945429327203e-01 -5.4213973201670236e-03
      -1.0487134721596655e-01 -4.4449632235284788e-02
      4.1258348574241502e-02 1.1148986622342032e-02
      -7.6742330099387757e-05 2.2963371736177138e-01
      2.3284684541542075e-01 -1.2447857052842615e-01
      -9.6499861977404927e-02 1.3823900930749164e-01
      -8.2767205457332793e-02 5.5116043027960996e-03
      -5.1592566379087557e-01 -9.2929904871477759e-02
      -1.2894283116470273e-01 -2.7739943416544888e-01
      -6.6838582763673285e-02 2.3246596522940935e-01
      -7.1945284162809778e-02 -1.4055442726291481e-01
      1.6164013876074296e-01 3.0104899192550610e-01
      5.4441147597164730e-02 -5.3017920024906506e-01
      -2.5247206793930686e-02 1.2558118340145969e-02
      2.4365678649495062e-01 4.3469255215308567e-01
      -4.8529705100178192e-02 7.9833779310161512e-03
      1.7296174569561168e-01 -5.3517201879786605e-02
      -3.1943456605580434e-01 1.0180301924305442e-02
      -2.2107813666328052e-01 3.6414780273018782e-02
      1.5223742666052567e-01 -5.9125222712858964e-02
      2.1071094626511928e-02 2.2776254874391721e-02
      2.8147178426000585e-01 3.6112229270376872e-01
      1.4546433812898293e-02 -6.0499074095356391e-03
      3.1780667937519151e-02 4.8464074253207395e-01
      -7.3100670986201954e-01 -6.0294162472270957e-02
      1.4673689507163601e-01 -6.7220583146437177e-03
      -7.5226107609142737e-02 2.6999802979944337e-01
      -2.7838604929134542e-01 1.2108380984767163e-01
      -1.7357844406469669e-01 2.6497494453238940e-01
      1.8391910068751383e-01 -1.6214777996815063e-01
      2.5781270966686110e-01 -1.9946626042845368e-02
      6.3133697536297140e-01 -5.2342180965125529e-01
      2.0751201429729252e-01 -3.0461742110315170e-02
      4.3017619121210396e-02 1.9649506463854771e-01
      3.5383741591162983e-02 -1.9137558374123570e-01
      2.2670880175500147e-02 -1.9563518650526177e-02
      1.5943062099345776e-01 -1.0946728353844306e+00
      6.6569428476774281e-03 3.4049221529904339e-01
      -1.7617255732969705e-01 1.5306706387188881e-01
      3.6960836021101839e-03 2.7148195147448201e-01
      -2.1770338173226059e-01 1.6243462297856867e-01
      3.7124239853971136e-01 1.2431807140420320e-01
      1.3794660124028979e-01 4.3926987973623023e-02
      6.8844845967802062e-02 5.5404974863636303e-01
      -7.4582205639890631e-01 3.3584931023736123e-02
      3.9702351479585113e-01 -5.2439422430923428e-02
      -7.1788059008246904e-02 3.4481008634184529e-01
      6.2256277767125356e-01 4.6464558407566400e-02
      -7.4998424332572949e-02 -3.1337576671475942e-01
      2.5863212094612453e-01 2.7045251783859892e-01
      3.0906524538779793e-02 1.5979754603153876e-01
      3.2345314865452418e-02 -3.3783138460668743e-02
      -2.0324077718112510e-02 7.5670872004704862e-02
      4.4099027619051406e-02 3.1747529525049678e-01
      4.6169402734381570e-01 4.4660774558401492e-02
      -3.3433212627109181e-02 3.5943333296489757e-02
      3.5702806349831584e-02 5.7772945561804116e-02
      2.2949140318973946e-01 8.6493880158899552e-03
      2.9359878249305124e-02 1.0751308348438143e-01
      5.6736606093678178e-02 -2.5296346626121603e-02
      1.9016974169498369e-02 4.3875647664573580e-01
      -8.4266433899095161e-02 1.2931151788375651e-02
      -2.5977828681418252e-01 -4.6172613072374045e-02
      9.6428809987452443e-02 4.2502301757165906e-01
      -3.2669889724031481e-02 -6.4746707443072232e-02
      1.0524524797571182e-01 -7.8740640861438130e-02
      -3.4324383502916951e-02 -5.7299957552901193e-01
      -1.8381911186211905e-01 2.0323145035843460e-01
      6.5878380219170252e-02 -1.2686091771954160e+00
      7.6614083569530811e-02 1.4293708491183560e-01
      -2.8227935913015423e-02 4.8350318161458988e-02
      4.3151873773444073e-02 -2.4142870796749369e-01
      -3.4432189124422741e-01 2.6730358513414459e-01
      2.7264720561730410e-01 -2.8831164019231491e-02
      -1.4801855029575167e-01 -7.0595642885314683e-02
      3.7016076792851976e-01 1.0577200590313532e-01
      9.2577930201444385e-03 -2.1399172687243206e-01
      -3.2142085634879375e-01 9.8011652969623858e-03
      2.2413517277261066e-02 -9.3343505211118168e-03
      1.1247460019888793e-01 -7.8201404237652570e-03
      1.0537589848597273e-01 -5.5702128717667011e-03
      -6.3727496997402946e-02 -1.3626510165460345e-01
      3.0821263391192233e-01 -2.3931145420779865e-01
      1.9210311820459666e-01 8.8573602671845081e-02
      2.4673333681760726e-01 -6.1029218555110998e-01
      3.3930851537287191e-03 -2.5337804256645120e-02
      -9.6919333906988023e-02 4.5817400172005868e-01
      -7.0835288609684222e-01 -6.8085478431416074e-02
      -3.6041458595842901e-01 4.6639626100064523e-03
      1.7706566000200909e-02 1.3351505958675902e-01
      -1.2709649397080483e-01 2.9469718282530744e-01
      4.6460475797421991e-01 4.4656391808311147e-01
      5.6276938277209565e-01 2.7228659947881206e-02
      3.9704430315219441e-01 4.3248992237354006e-01
      1.9073404191348176e-02 6.9210609003648693e-01
      -1.0919842178989197e-03 7.5829891614783512e-02
      -1.3069270815839549e-03 -1.4630921248488482e+00
      4.1417010550588695e-01 -1.8132120687474257e-01
      5.8612521403440676e-01 3.5707660214722069e-02
      1.0913912486605558e-01 4.3614887435956340e-01
      1.6872251008468570e-01 3.1386152991101723e-01
      -1.5431052167089274e-02 4.4729700504735831e-01
      7.0031098492062765e-02 5.9638514436595225e-01
      7.9260750096422902e-02 -2.8321149481218635e-02
      6.6859022680272565e-02 2.5674602769439553e-01
      -6.8363526600078695e-01 1.9474723673517769e-01
      -8.8527435877850474e-02 4.2718142834987632e-01
      -3.9771083371748062e-01 2.1762616777740645e-02
      -2.0378465450431038e-02 8.3819852792641525e-01
      -2.8457626420639138e-02 2.7197826620427301e-01
      8.7971672773635479e-01 -1.3818069336087291e-01
      -3.4822119761833947e-01 1.1213926303081180e-01
      6.8982454364208390e-01 3.9697410747569932e-02
      1.0477610100956123e+00 -8.1865079930020335e-01
      2.7792414905766272e-02 -6.0899926081401816e-02
      1.1621195552015096e-01 4.0507483433962255e-01
      6.9139699495414444e-02 -1.3788115923525010e-01
      5.8971879714055975e-01 2.1230838145980943e-01
      -5.3050589897871570e-01 1.8302199432794212e-02
      -6.8136046530999284e-01 1.0442705025228415e-01
      9.3428251415009411e-01 7.7356474813101123e-02
      -1.0550365239357462e+00 9.8575933853803463e-02
      1.8334305993160543e-03 9.6429286604043499e-02
      5.5150410919735848e-01 -2.2357168999854279e-01
      -2.2944091561238798e-02 5.2548235200715354e-01
      1.3530094670846620e+00 -8.6995673043311961e-02
      3.8477292236500947e-02 -6.1690101096603278e-01
      1.5835430694245789e-01 3.0530169535267454e-01
      -1.7690176722706127e-01 3.1998034906888288e-02
      6.7491262770456129e-01 2.0124843794959348e-02
      -3.4653401903582426e-01 1.4847545059535056e-02
      8.6228590940001404e-02 1.0029458561335754e-01
      -2.1991166113047680e-01 3.5362690281262049e-01
      1.2293197751712634e-01 -7.8673722818733610e-02
      -1.2638335814228170e-02 3.6251054910636282e-01
      1.4908198441022558e-01 3.4457167319897858e-01
      4.0222640606350744e-03 2.3295718351234596e-01
      -3.2246034679028757e-01 -2.4640856367175407e-02
      -6.8346087580845413e-02 4.9556069484470128e-01
      3.1877868057258973e-01 -3.6007582512456927e-02
      2.0879517531460950e-01 -8.7795475415421834e-02
      5.1890673452415610e-02 -4.7347214982370676e-02
      5.9215750036401490e-02 -9.3027821666345978e-01
      -6.1531315529229448e-02 -1.0463561423963146e-01
      4.2957871883649490e-01 4.5569255343388307e-02
      1.3787078809276423e-01 -7.2302528590885096e-02
      2.0242380154062569e-02 1.7160449517495480e-01
      8.4854726879345577e-01 2.7781101024968460e-02
      -1.2509178929531198e-02 -9.1817332684568476e-01
      6.5121777937015757e-01 7.0118310772903411e-02
      -2.4927530914386955e-02 2.0625750114394009e-01
      7.2777779378763643e-03 -2.1338314973801190e-01
      1.3833199846091063e-01 2.4148875965942590e-01
      -1.5392370868482783e-01 2.2962028300072679e-01
      -1.2083973313879239e-01 1.8555445741502898e-02
      2.2965346766422406e-01 -2.5113796521924782e-02
      -6.4432485959915247e-03 3.2622810342469319e-02
      1.1249747057907006e-01 -8.6158997098466597e-02
      -1.1352255539564144e-02 2.0483153613029270e-01
      1.0669864266124707e-01 3.6694499855967777e-01
      1.6633059139728812e-01 7.9197876566875783e-02
      -9.2377587495724195e-02 -4.2244872700240341e-02
      -1.5665879381374960e-02 1.0737068975863662e-01
      8.4677963707925130e-02 -1.1254160853272145e-01
      -8.6604143410382672e-01 1.2517031352531302e-01
      2.3673638472488137e-01 -3.7211936310784295e-02
      -9.8211088595467622e-02 -2.1593982713021445e-02
      -5.4594543881310723e-03 6.7886699609910561e-02
      6.9271996103642791e-02 4.6008188253150402e-02
      -4.7521224408616231e-01 3.6086834611827950e-01
      2.2458810753707503e-01 1.4600740407799481e-01
      -4.5510203821484754e-02 -9.0669211590708454e-02
      -2.9596233318950405e-01 3.5908731008340850e-01
      1.7974813815756088e-01 -4.4028158016520691e-01
      -7.6716316629099765e-02 4.2459862070111411e-02
      3.0084837305453624e-02 1.3099720525148052e-02
      9.5077325149467207e-02 -4.0949770140422243e-01
      3.7201694792349654e-01 6.4944323884811550e-01
      2.4813146532334054e-01 -3.6796471367277345e-01
      4.2996085686782842e-02 -7.8076177991340076e-02
      1.5488416329035659e-01 -7.1518313247126387e-03
      -3.4800714164260055e-01 6.7607154367489750e-02
      1.2473558092591273e-03 -1.7724181198575748e-02
      3.2097870102795251e-01 3.3694043160621873e-01
      -3.1977016610001845e-02 -3.2221381684768034e-02
      4.8296949658050304e-03 1.2614865759285201e-01
      -6.6967094009765069e-02 -1.3969382314322309e-01
      1.7231882061336794e-02 -5.2551310246317970e-02
      -6.8579445182461826e-02 -6.6443631489582633e-01
      3.4607929927760073e-01 -4.4690812123616164e-01
      7.6209498519101623e-02 -2.4241447636223126e-02
      3.3806661041137820e-01 4.3852853521563234e-02
      -2.2902073891907559e-01 -1.7978410160221264e-01
      9.4140743515488623e-02 8.6071572735391434e-03
      -9.9322399993190244e-02 -1.4305159040092907e-01
      -2.2845976004221738e-01 -3.9086235810717150e-03
      -1.9496946904384838e-01 -1.1555806335683293e-01
      -4.4438865964347402e-02 2.4099690051916139e-01
      -1.7736044821375108e-01 3.4866051348273130e-01
      7.1153613741385469e-01 -5.1203970907913110e-01
      7.8856716434258373e-02 -1.0119553953852906e-01
      5.6803012134405119e-02 -1.0274507637395105e+00
      -1.5236834283338463e-01 1.1639537368268468e-01
      7.2435997810704672e-02 -2.1692883035773616e-02
      -4.0929244589826402e-01 -3.1482642832764710e-02
      -8.3775764462322606e-03 -2.9252163904244666e-01
      3.3013544769504638e-01 1.2424168185706594e-01
      -4.3572996740938140e-02 -3.3661489429526563e-02
      -1.1217755163137505e-01 -1.2778859002222698e-01
      -1.9411775986873375e-01 -6.8131247635113940e-02
      -1.1192009943011959e-01 4.2400202070784454e-01
      -8.4897457336247106e-01 -1.3205793872051153e-01
      2.3121075310851927e-01 4.3419996072177100e-02
      -8.8803584515388834e-02 -1.4512424708196067e-01
      -5.2498929000459349e-01 -4.3929935586461306e-02
      -4.6559962308036790e-01 1.9718624088372108e-01
      5.4710686321590674e-01 -1.3166390715532858e-01
      -8.5417034805766887e-02 1.4439052540338408e+00
      1.7141518950090170e-01 6.6333058966275715e-01
      3.3536031297729404e-02 3.0873228325129787e-02
      -1.8979536998100035e-02 1.9100929528813310e-01
      -6.7977898235575129e-01 -3.8585025446234655e-01
      -3.5831632242036660e-01 2.5304554542123386e-01
      2.4734614383149625e-01 5.9898807387070363e-01
      9.4674969886189755e-03 -2.0247523831782496e-01
      1.4230130208108557e-01 -2.6261656935929439e-01
      -8.2021319188665853e-01 -1.7637481418435963e-01
      4.7517483200983313e-01 2.4299134194039899e-02
      2.9394004359782604e-02 1.1477369867513963e-01
      -1.5712894955390003e-01 1.8248634030913102e-02
      -9.9727676825562467e-02 1.7458075541870638e-01
      3.6626840243834037e-02 4.1609542850866577e-01
      -2.8075846614346367e-01 2.3227940713264714e-01
      7.1093092312370390e-02 -3.3860735418534088e-01
      -2.0803531864158484e-01 -6.6655176441207067e-02
      -3.1796633951148512e-01 -2.8172693954042743e-01
      -2.1923266920229634e-01 3.9652625866031424e-02
      1.8633111681807735e-01 -2.2064460958923793e-01
      -1.5714967677620009e-01 -1.4958012323359390e-01
      -7.4153369783280992e-02 -3.4653432146361338e-02
      8.6870479658205757e-01 -1.3840748800063361e-03
      -5.4335295584156951e-01 6.5303345707644012e-02
      -6.7254911951824836e-01 1.3931848400424901e-01
      6.2221360937849225e-02 2.7360084356446568e-01
      -2.4395005786798402e-01 4.4512024604590819e-02
      7.1732381561944697e-02 8.0906673086611369e-02
      4.3577284748391787e-02 -4.2788877100619738e-01
      -7.9286253125544548e-02 9.9332530068590386e-02
      -2.8576965901495704e-01 -2.2560347080906157e-01
      9.1345882926839228e-01 2.1220864019325544e-01
      -5.1405810152543328e-02 8.5154986278217548e-02
      6.9553430155268214e-01 1.3271175295445491e-02
      -8.6306030676566031e-02 2.5686315417559985e-01
      2.8297168049680527e-01 7.4124174602211240e-02
      -9.8493164904502550e-01 -9.1125605168007134e-02
      1.3172209859007850e-01 -1.8978609820918249e-01
      1.1952831279173683e-02 1.9481902781103150e-01
      2.8617980926160946e-01 -1.1564579071389125e-01
      1.7518328716049350e-01 -4.9250514629634326e-02
      2.7906455920008916e-02 -1.5845900208725480e-01
      2.2662692313115659e-01 1.8162846565370497e-01
      1.2128506091053363e-04 -5.5897117582861082e-02
      2.7239855988726702e-02 3.7954568598479033e-01
      -9.1716355666133467e-02 3.1768298487678326e-01
      1.2354972857239387e-01 1.7273509261586711e-01
      -1.4041837392290615e-01 1.6669326858422467e-02
      -1.4336562806054096e-01 3.5863281101397826e-01
      7.4925234133906116e-02 -6.3493555174548619e-02
      6.0771244130329541e-02 -1.2527274110796288e-01
      -1.8402682909437745e-01 -1.6388208287262571e-01
      -6.5231715163328902e-02 3.5913796124127172e-02
      -5.7769705087514878e-01 -4.2179518009262978e-01
      1.0353446094821349e-01 -1.1786728803965761e-04
      -9.3145481238727804e-02 -2.9575147700156684e-01
      -7.7067830751383154e-02 -1.9237819296293876e-01
      -1.8118986088118374e-02 -2.0422360513473518e-02
      4.1495584194321554e-02 -5.4691546734376888e-03
      -3.5665144597850966e-02 -3.6979405028209157e-02
      2.7129391905314687e-01 -3.2006890746657768e-01
      -1.0058040247688256e+00 -5.9925761129127612e-02
      2.7867525128604487e-01 -3.2174671647016972e-01
      1.7912241810250687e-01 -5.6435712169182439e-01
      -4.1108420865327883e-01 -1.6100768217396591e-01
      2.9861261933402616e-01 -1.0850687044122288e-01
      2.0214413564645550e-02 -4.5737168599910727e-01
      -8.7853577763581298e-02 8.9068988441712002e-02
      5.1193875912672382e-02 -8.8205026168637568e-02
      1.6955116280926712e-02 -6.4110484125586330e-03
      -4.8297112424405792e-04 -6.1695743262126859e-02
      5.4668981225252065e-02 -2.4689838527421376e-02
      -5.9183236566519137e-02 2.6742690134770819e-01
      -3.9480687254541645e-02 -3.4501697852693408e-01
      -1.1625166118767701e-01 -2.3894139050467562e-02
      1.5210332303731231e-02 1.4604933624326544e-01
      4.2605100617766484e-02 4.9862303125916822e-02
      -9.7816923257798255e-02 1.8126468993827274e-02
      -2.2121054525171691e-01 3.6420758512304675e-02
      -2.4030802275949281e-01 -1.4252789162991186e-01
      2.5149534649156630e-01 -1.8339912037270652e-02
      -5.4261848756898112e-01 -4.0724222315393202e-02
      1.8275012061110191e-01 2.3232620858036859e-02
      8.0019295761279252e-02 1.5148096152341421e+00
      4.1371953061171435e-01 -2.4198988505659597e-01
      9.3826391578415574e-02 -7.3019187311783001e-02
      3.9947381108437964e-02 2.0246601427047370e-01
      2.4497205998734695e-01 4.5573107825168165e-02
      -1.5866748943587850e-02 7.2185984246208570e-04
      -1.4533859032019196e-02 3.5041471672622437e-01
      1.2132646491718510e-02 3.2295730133616189e-02
      1.3629729073785582e-01 -2.5551509961394266e-02
      -8.1822325310323601e-02 9.9365106452278792e-02
      -1.2789472880030281e-01 -5.7783612505578785e-02
      1.2410128521309061e-02 1.1400918551451752e-01
      -1.4988567204333256e-01 -7.5463760694544912e-02
      4.6610951194619654e-01 -4.0787560539988992e-02
      -3.7837408864284178e-01 -2.3487426688912791e-01
      2.6390790639675749e-01 -1.5038431532847582e-01
      -1.2781302765393804e-01 3.2084394795881217e-02
      3.2522584220581668e-01 3.8750373335468435e-02
      4.5881027653281323e-02 -1.2196775855686631e-01
      2.9248348346441529e-02 -1.9926233695346968e-01
      -4.4101456631296894e-02 -1.0877878006449675e-02
      4.1119433647731723e-01 8.4635830915831892e-02
      -2.6208595775020226e-02 5.9587568761625753e-01
      3.4373422695767991e-01 9.1043547853377899e-02
      2.3284051143519569e-01 1.1437335532294721e-01
      3.6600196957986407e-02 1.8792672558677123e-01
      1.2900863602951776e-01 2.5169034528368323e-01
      -3.0382511231160525e-01 -1.2719231917483162e-01
      3.2190607800181147e-02 6.5871104526855170e-02
      1.1423503120773155e-01 -1.6831018480823700e-02
      1.9430962592417211e-01 8.0238021609736199e-02
      -5.2501760535542841e-02 1.5318541029616869e-01
      2.5604369278644824e-02 1.1870016634288443e-01
      8.0502413341479534e-02 2.6188132952505655e-01
      1.7896913047257081e-02 -2.3737080474636996e-01
      2.5076035584360237e-02 -8.9887956591506932e-02
      1.1546183196507405e-01 1.5298899094015686e-01
      8.5506337095113683e-03 6.9782537750770368e-02
      5.5008620898157212e-01 -2.0021263542343462e-01
      -1.7766590778486629e-01 -1.1691902655264526e-01
      5.8485559955326927e-01 1.2948690951437231e-01
      2.7688760832684955e-01 2.4572646055608282e-02
      1.1879711826576428e-01 -3.2033877334226808e-02
      -1.3683474527473638e+00 1.0112932472522618e-01
      1.8194627973642888e-01 -1.0518758849190550e+00
      2.4521915658412283e-01 7.2874921004437321e-01
      3.4963631837135904e-02 2.2356698958835707e-02
      -6.4443076285163076e-02 8.7613924494975029e-02
      2.9367551655402391e-01 5.7698324762790032e-01
      -6.5788351860544603e-01 4.5448247552898574e-01
      -2.0100088621990561e-01 -8.1633473171961157e-01
      -4.1436455500624120e-01 6.2935695465973629e-01
      -7.4737493756255061e-02 -5.0878956225345173e-01
      -8.2003205448783381e-02 1.1970915421326738e+00
      9.0159827297389850e-01 2.3176315921248573e-02
      1.5368422083405273e-01 -8.7405292422009263e-03
      5.4386072360396598e-01 3.3590273879944080e-02
      2.2256866662267345e-02 4.4209026812169504e-02
      -6.4812205740596518e-01 -1.9986931479135669e-01
      8.7312394633182644e-01 1.0957210619876226e-01
      -6.2071567475850263e-02 -2.0613070751643359e+00
      1.0993848994292258e-02 1.4564947614512758e-01
      -4.2032728207469622e-01 4.1849919563620253e-01
      -1.6617473528293361e-01 8.9119348217375785e-02
      -1.5316456633297354e-01 -3.6163675258580563e-01
      1.6464401028446896e-01 -6.2132816364880605e-01
      -6.1218817641970746e-01 3.9501562297647478e-03
      -1.1397120905121179e-01 2.2779760480942240e-02
      -4.2976412382250906e-01 -1.3675364895754696e+00
      1.0830910849021003e-01 -1.5055439141111836e-02
      1.6518309828933969e-01 2.6589908874278576e-02
      4.2062319943606701e-02 -2.3659478590586469e-01
      -1.4452653014293161e-02 5.4502077763438206e-01
      -2.9786302687987043e-02 -2.7786136813338758e-01
      2.6631891506258235e-02 -1.4783793286708491e-01
      7.5866566273349631e-02 -8.4746960579511060e-02
      -1.2256486949474256e-01 -9.9426785855207658e-02
      5.0435404076715158e-02 9.6391141915777259e-02
      5.1167779273118086e-01 -1.1973615095171347e-01
      2.2689978275957498e-01 3.0116413407981607e-01
      4.8192431799856689e-02 -1.4502366967355347e+00
      -4.6376757951473807e-01 -1.4516229006346956e-01
      -3.7137769403166050e-02 7.0995857173107503e-04
      9.9749521163460864e-02 -6.2187790461306813e-01
      -4.1619704394905238e-01 2.3271523137981454e-01
      4.0184785029520810e-02 2.3339424142379835e-02
      -1.1969697813946074e-01 -1.5521576111144222e-01
      1.0267210403110651e-01 -3.7279875982301220e-03
      -7.5632086908752294e-01 1.7040669323926890e-02
      -2.9480670814091958e-01 -3.1375601080581605e-01
      -3.6640358438020892e-01 1.0063927854114538e+00
      -2.7808314149893629e-02 -2.9778934212759307e-02
      4.8733206137931952e-02 -9.1231908625015474e-03
      3.6837659105086622e-02 -5.7042017769756835e-02
      -8.5772058952793814e-02 -2.9830884771841476e-01
      2.6582100211438298e-02 -2.8302591001908661e-01
      5.2471479978865136e-02 4.3902699839242582e-02
      -2.0146370639828087e-01 -2.3175386976253684e-01
      2.8902531862938668e-03 1.4045490083407532e+00
      4.1804724413661322e-02 1.3948433822463682e-01
      -1.9559382971389802e-01 2.1021977106890857e-01
      1.0386620761913529e-01 5.5444552209476035e-02
      2.9599929753595761e-01 -1.5712175023780445e-01
      5.3008394086057842e-01 6.7218527654024085e-04
      -2.2557129311689134e-01 2.0366870641000070e-01
      -4.3013223624416924e-01 1.8794250940606569e-01
      -2.8943511994877624e-01 -1.0693647426593476e-01
      -1.4040574632509409e-01 -1.4231761591436182e-01
      -1.1691814507117826e-03 -3.6100732577052624e-01
      -4.6860373888153994e-01 7.1076275680322348e-02
      -1.4237664653857638e+00 -7.2953006015683308e-01
      1.2892556233564880e+00 8.1639975870060755e-01
      1.0616178401020662e+00 3.0987265355945484e+00
      -1.0846475471696295e+00 3.3726396291281406e+00
      -2.7683656452411753e+00 -2.5485694054072083e+00
      -2.1903154527605744e+00 -2.6857287109895447e+00
      -5.0616744480375808e-01 -8.6749597417499114e-01
      -3.6721735625863428e-01</_>
    <_>
      -9.6947269370662092e-01 5.3670774851407665e-01
      9.5047314874491584e-01 -8.7110900900135646e-01
      -1.0129137211466623e+00 1.5244636663294822e+00
      1.1769058562222826e-01 3.5288446115563565e-01
      -4.4938300014466581e-01 -3.1460307244214940e-02
      3.9854475347033808e-01 -3.0076715001538940e-01
      7.6106403728759109e-01 -6.4150915374690343e-01
      8.6690250437321481e-02 -5.9843764008464029e-01
      -3.3016616792165804e-01 -8.6385764784456573e-02
      3.3187235621320471e-01 3.8553390732796372e-01
      -3.8359965326065576e-01 1.2413656620757341e+00
      -2.1543167044024147e+00 -3.6340800755927732e-01
      -5.6890370982361917e-02 1.4096354022798427e+00
      -9.7786612339973733e-01 -2.1275071554734923e-01
      1.3738378425859907e+00 2.9040113248239130e-01
      8.7980087038872679e-01 4.2970011242421813e-01
      -1.5179316408274132e-01 3.6161506085186007e-01
      6.6754051786279045e-01 -8.7125202156535086e-01
      -5.1184182312252013e-01 -5.6872898894242851e-01
      5.3127428519324726e-01 -7.9529965491112120e-01
      5.3446326000675226e-01 -8.1894141170776102e-01
      1.5784669056606297e+00 8.1901555950230176e-01
      -3.5602129350315742e-01 -9.0372453810361342e-01
      -8.9628081884388242e-02 -1.0066308704158296e-01
      2.1626159020916780e-01 -9.6285736615389850e-01
      2.7992195934565750e-01 -1.9906184040788308e-01
      3.6370595261345795e-01 8.6879901772903534e-01
      -8.6050723696208675e-01 -3.0209042423431193e-01
      -5.8670939989574711e-01 -1.7122693627716395e-01
      7.0534043434531657e-01 -7.5853367815159833e-02
      4.7685079937782937e-01 7.2052821685617274e-01
      3.0171409194803583e-01 -8.1787265564393286e-01
      4.4219955690377412e-03 2.1373097041145694e-01
      -9.7375167135228452e-02 -3.1881644805843734e-01
      -8.3457118321978818e-01 3.4060181031354742e-01
      -1.1111547928767678e+00 -2.0118257013989313e-01
      9.5761720880743872e-01 7.9970291251536185e-01
      5.1784930390820372e-01 3.0025317533220142e-01
      -5.8444871853212055e-01 8.9712495537503245e-01
      -1.4536575756881558e+00 -1.8218510171356508e-01
      -1.3521263589057400e+00 4.7205851675929900e-01
      7.9028700679871611e-01 -1.2764807439374390e-01
      4.3798834097903000e-01 2.8819821122404354e+00
      -3.5343286023465903e-01 -5.2931110187656827e-01
      3.3886011909674629e-01 -2.5025001742971336e+00
      -1.1735583757466510e+00 5.1562374832572822e-01
      -1.3678207111816185e-01 1.0271831495001589e+00
      -5.2520465198346977e-01 -2.4820673900707408e+00
      -3.2647932079795333e-01 1.5601963241287273e+00
      9.1757154668073537e-01 7.2689279165756271e-01
      6.0426994207915363e-01 -8.2436402713647816e-01
      -1.3470392971837799e+00 -8.1688025746794291e-01
      -1.8919206428168833e-01 -3.4924414854597585e-01
      -8.3840222174319312e-01 1.7521119993564971e+00
      3.9381670415754100e-01 1.6282265816175525e+00
      1.1759931229963292e+00 -2.2490289686476089e-01
      9.6804160904371594e-01 1.0890134377526097e+00
      1.7648478755920569e-01 -2.3500867537113632e-01
      1.1277220881234401e-02 -2.0795945639237163e+00
      -8.3922387098740048e-01 -4.3863679865600066e-02
      1.2679916892221554e-01 1.1650602246835027e+00
      1.4203572933394186e+00 -1.0035845605335894e+00
      -5.3184373657038786e-01 -1.1206417901080827e+00
      2.4107826582132674e-01 2.5375058889047741e-01
      4.4563989062553433e-02 -6.0361449206723106e-01
      2.4157549501692566e-01 -1.1280096969352245e+00
      7.4019443238689431e-01 2.0549437349463143e-01
      5.9124253839901308e-01 1.7060037495133713e+00
      3.3703425524647274e-01 -7.4076594525043737e-01
      -9.8770177706095297e-01 -9.6412338262229591e-01
      8.2655610635677468e-01 7.2759865897845832e-01
      1.3167341453910443e-02 5.9535451113065097e-01
      -3.8519764148657687e-01 2.9088494824060429e-01
      -1.6036245248424832e+00 -7.5269569789856183e-01
      9.8132265200259072e-01 -4.8400383647845652e-01
      -1.5803434178032763e+00 -9.8489537630005142e-01
      -7.6611279841970492e-01 -2.6269964294549180e+00
      -1.9403387681270208e+00 -4.2396532963740691e-01
      -1.4488095607529150e+00 -2.2530471991122152e+00
      -7.0374789589450404e-01 -2.0728531701439925e+00</_></weights></opencv_ml_ann_mlp>
</opencv_storage>
